{"learner":{"attributes":{"best_iteration":"125","best_ntree_limit":"126","scikit_learn":"{\"use_label_encoder\": null, \"n_estimators\": 126, \"objective\": \"binary:logistic\", \"max_depth\": 154, \"max_leaves\": null, \"max_bin\": null, \"grow_policy\": null, \"learning_rate\": null, \"verbosity\": 0, \"booster\": null, \"tree_method\": null, \"gamma\": 4.690643907277221, \"min_child_weight\": 4.0, \"max_delta_step\": null, \"subsample\": 0.6624745156815548, \"sampling_method\": null, \"colsample_bytree\": 0.6497300338480558, \"colsample_bylevel\": null, \"colsample_bynode\": null, \"reg_alpha\": 35.068329327333295, \"reg_lambda\": 2.057670387368169, \"scale_pos_weight\": null, \"base_score\": null, \"missing\": NaN, \"num_parallel_tree\": null, \"random_state\": null, \"n_jobs\": null, \"monotone_constraints\": null, \"interaction_constraints\": null, \"importance_type\": null, \"gpu_id\": null, \"validate_parameters\": null, \"predictor\": null, \"enable_categorical\": false, \"feature_types\": null, \"max_cat_to_onehot\": null, \"max_cat_threshold\": null, \"eval_metric\": null, \"early_stopping_rounds\": null, \"callbacks\": null, \"kwargs\": {\"eta\": 0.00920583610759869}, \"classes_\": [0, 1], \"n_classes_\": 2, \"_estimator_type\": \"classifier\"}"},"feature_names":["diff_total_games","diff_win_pct","diff_avg_points_for","diff_avg_points_against","diff_avg_game_margin","diff_std_game_margin","diff_non_home_wins","diff_home_losses","diff_close_wins","diff_close_losses","diff_3FGA_pg","diff_3_pct","diff_FTA_pg","diff_FT_pct","diff_TOV_pg","diff_avg_pace","diff_off_eff","diff_def_eff","diff_pythag_win_pct","diff_luck","diff_wins_vs_tourney_teams","diff_away_wins_vs_tourney_teams","diff_losses_vs_tourney_teams","diff_losses_vs_non_tourney_teams","diff_games_vs_tourney_teams","diff_final_net","diff_net_improvement","diff_final_pom","diff_pom_improvement","diff_pi_i","diff_coach_WL_car","diff_tourneys_car","diff_sw16_car","diff_ff_car","diff_champ_car","diff_returning_min_pct","diff_returning_score_pct","diff_preseason_pts"],"feature_types":["int","float","float","float","float","float","float","float","float","float","float","float","float","float","float","float","float","float","float","float","float","float","float","float","float","float","float","float","float","float","float","int","int","int","int","float","float","float"],"gradient_booster":{"model":{"gbtree_model_param":{"num_parallel_tree":"1","num_trees":"126","size_leaf_vector":"0"},"tree_info":[0,0,0,0,0,0,0,0,0,0,0,0,0,0,0,0,0,0,0,0,0,0,0,0,0,0,0,0,0,0,0,0,0,0,0,0,0,0,0,0,0,0,0,0,0,0,0,0,0,0,0,0,0,0,0,0,0,0,0,0,0,0,0,0,0,0,0,0,0,0,0,0,0,0,0,0,0,0,0,0,0,0,0,0,0,0,0,0,0,0,0,0,0,0,0,0,0,0,0,0,0,0,0,0,0,0,0,0,0,0,0,0,0,0,0,0,0,0,0,0,0,0,0,0,0,0],"trees":[{"base_weights":[-0E0,3.5982126E-1,-6.164663E-1,-0E0,5.3537554E-1,-6.7400396E-1,-0E0,-0E0,6.0790217E-1,-7.5115365E-1,-0E0,6.651371E-1,-0E0],"categories":[],"categories_nodes":[],"categories_segments":[],"categories_sizes":[],"default_left":[1,1,1,0,1,1,1,1,1,1,1,1,1],"id":0,"left_children":[1,3,-1,-1,-1,-1,-1,-1,-1,-1,-1,-1,-1],"loss_changes":[4.4917957E1,9.691411E0,3.5757236E0,0E0,4.4020195E0,2.4656296E0,0E0,0E0,2.9614658E0,0E0,0E0,0E0,0E0],"parents":[2147483647,0,0,1,1,2,2,4,4,5,5,8,8],"right_children":[2,4,-1,-1,-1,-1,-1,-1,-1,-1,-1,-1,-1],"split_conditions":[7.5E0,-5E-1,-5.675087E-3,-0E0,4.928579E-3,-6.20477E-3,-0E0,-0E0,5.5962475E-3,-6.914997E-3,-0E0,6.1231432E-3,-0E0],"split_indices":[27,32,36,0,37,2147483647,2147483647,2147483647,2147483647,2147483647,2147483647,2147483647,2147483647],"split_type":[0,0,0,0,0,0,0,0,0,0,0,0,0],"sum_hessian":[1.845E2,1.0475E2,7.975E1,2.475E1,8E1,7.425E1,5.5E0,6.5E0,7.35E1,6.375E1,1.05E1,6.775E1,5.75E0],"tree_param":{"num_deleted":"8","num_feature":"38","num_nodes":"13","size_leaf_vector":"0"}},{"base_weights":[-0E0,-5.7206076E-1,3.906649E-1,-0E0,-6.31329E-1,-0E0,5.599496E-1,-6.5647495E-1,-0E0,6.309543E-1,-0E0,-6.8501127E-1,-0E0],"categories":[],"categories_nodes":[],"categories_segments":[],"categories_sizes":[],"default_left":[1,1,1,1,1,0,1,1,1,1,1,1,1],"id":1,"left_children":[1,-1,5,-1,-1,-1,-1,-1,-1,-1,-1,-1,-1],"loss_changes":[4.377101E1,3.2303314E0,1.2076202E1,0E0,6.046219E-1,0E0,3.2087975E0,3.7148476E-1,0E0,0E0,0E0,0E0,0E0],"parents":[2147483647,0,0,1,1,2,2,4,4,6,6,7,7],"right_children":[2,-1,6,-1,-1,-1,-1,-1,-1,-1,-1,-1,-1],"split_conditions":[-5E-1,-5.2662976E-3,-8.4270205E-4,-0E0,-5.811911E-3,-0E0,5.154804E-3,-6.0434006E-3,-0E0,5.808462E-3,-0E0,-6.306101E-3,-0E0],"split_indices":[32,25,29,2147483647,2147483647,0,25,2147483647,2147483647,2147483647,2147483647,2147483647,2147483647],"split_type":[0,0,0,0,0,0,0,0,0,0,0,0,0],"sum_hessian":[1.8449886E2,8.3749504E1,1.00749344E2,7.2499876E0,7.649952E1,1.4249886E1,8.649946E1,7.199955E1,4.4999695E0,7.5749535E1,1.0749926E1,6.674957E1,5.2499757E0],"tree_param":{"num_deleted":"8","num_feature":"38","num_nodes":"13","size_leaf_vector":"0"}},{"base_weights":[-0E0,5.265382E-1,-5.1209164E-1,-0E0,6.552513E-1,-6.4624757E-1,-0E0,-6.84243E-1,-0E0,-7.0183206E-1,-0E0],"categories":[],"categories_nodes":[],"categories_segments":[],"categories_sizes":[],"default_left":[1,1,1,0,0,1,0,1,1,1,1],"id":2,"left_children":[1,3,5,-1,-1,-1,-1,-1,-1,-1,-1],"loss_changes":[5.004397E1,6.933256E0,8.341875E0,0E0,0E0,2.6007118E0,0E0,1.6834259E-2,0E0,0E0,0E0],"parents":[2147483647,0,0,1,1,2,2,5,5,7,7],"right_children":[2,4,6,-1,-1,-1,-1,-1,-1,-1,-1],"split_conditions":[-6.5E0,-5E-1,5E-1,-0E0,6.0321363E-3,-5.949249E-3,-0E0,-6.299029E-3,-0E0,-6.4609507E-3,-0E0],"split_indices":[27,32,32,0,0,36,0,2147483647,2147483647,2147483647,2147483647],"split_type":[0,0,0,0,0,0,0,0,0,0,0],"sum_hessian":[1.8249594E2,7.174837E1,1.10747574E2,9.999931E0,6.1748432E1,8.874792E1,2.1999651E1,8.449803E1,4.2498903E0,8.024813E1,4.249901E0],"tree_param":{"num_deleted":"4","num_feature":"38","num_nodes":"11","size_leaf_vector":"0"}},{"base_weights":[-0E0,-4.8031014E-1,4.895068E-1,-6.6392606E-1,-0E0,-0E0,5.756359E-1,-6.8511534E-1,-0E0,-0E0,6.4023626E-1,-0E0,6.7224675E-1],"categories":[],"categories_nodes":[],"categories_segments":[],"categories_sizes":[],"default_left":[1,1,1,1,0,1,1,1,1,1,1,1,1],"id":3,"left_children":[1,3,-1,-1,-1,-1,-1,-1,-1,-1,-1,-1,-1],"loss_changes":[4.328691E1,7.8025208E0,3.2237701E0,5.912781E-4,0E0,0E0,3.6340065E0,0E0,0E0,0E0,7.430267E-2,0E0,0E0],"parents":[2147483647,0,0,1,1,2,2,3,3,6,6,10,10],"right_children":[2,4,-1,-1,-1,-1,-1,-1,-1,-1,-1,-1,-1],"split_conditions":[1.05973944E-4,-5E-1,4.5063193E-3,-6.1119944E-3,-0E0,-0E0,5.2992096E-3,-6.3070594E-3,-0E0,-0E0,5.89391E-3,-0E0,6.1885933E-3],"split_indices":[29,32,32,28,0,2147483647,2147483647,2147483647,2147483647,2147483647,2147483647,2147483647,2147483647],"split_type":[0,0,0,0,0,0,0,0,0,0,0,0,0],"sum_hessian":[1.8024069E2,9.749501E1,8.274568E1,6.774556E1,2.974945E1,1.374973E1,6.899596E1,6.349583E1,4.2497263E0,4.7498E0,6.4246155E1,5.9996552E0,5.82465E1],"tree_param":{"num_deleted":"8","num_feature":"38","num_nodes":"13","size_leaf_vector":"0"}},{"base_weights":[-0E0,-5.498838E-1,4.5621732E-1,-0E0,-8.18234E-1,5.895796E-1,-0E0],"categories":[],"categories_nodes":[],"categories_segments":[],"categories_sizes":[],"default_left":[1,1,1,0,0,0,0],"id":4,"left_children":[1,3,5,-1,-1,-1,-1],"loss_changes":[4.962575E1,1.6630653E1,6.820879E0,0E0,0E0,0E0,0E0],"parents":[2147483647,0,0,1,1,2,2],"right_children":[2,4,6,-1,-1,-1,-1],"split_conditions":[5E-1,3.5E0,5.5E0,-0E0,-7.532528E-3,5.427573E-3,-0E0],"split_indices":[32,27,25,0,0,0,0],"split_type":[0,0,0,0,0,0,0],"sum_hessian":[1.8573416E2,1.0524058E2,8.049358E1,3.3998535E1,7.124204E1,6.699394E1,1.3499647E1],"tree_param":{"num_deleted":"0","num_feature":"38","num_nodes":"7","size_leaf_vector":"0"}},{"base_weights":[-0E0,5.641821E-1,-4.6109942E-1,-0E0,6.3807136E-1,-5.6081843E-1,-0E0,-0E0,7.08829E-1,-6.262725E-1,-0E0,-6.435094E-1,-0E0,-0E0,-7.1328E-1],"categories":[],"categories_nodes":[],"categories_segments":[],"categories_sizes":[],"default_left":[1,1,1,1,1,1,0,1,1,1,1,1,1,1,1],"id":5,"left_children":[1,-1,5,-1,-1,-1,-1,-1,-1,-1,-1,-1,-1,-1,-1],"loss_changes":[4.8297012E1,3.5763626E0,7.2727013E0,0E0,1.5348549E0,3.31773E0,0E0,0E0,0E0,7.512283E-2,0E0,1.1489105E-1,0E0,0E0,0E0],"parents":[2147483647,0,0,1,1,2,2,4,4,5,5,9,9,11,11],"right_children":[2,-1,6,-1,-1,-1,-1,-1,-1,-1,-1,-1,-1,-1,-1],"split_conditions":[-7.5E0,5.193768E-3,5E-1,-0E0,5.87398E-3,-5.1628025E-3,-0E0,-0E0,6.5253633E-3,-5.7653617E-3,-0E0,-5.924042E-3,-0E0,-0E0,-6.5663387E-3],"split_indices":[27,33,33,2147483647,2147483647,21,0,2147483647,2147483647,2147483647,2147483647,2147483647,2147483647,2147483647,2147483647],"split_type":[0,0,0,0,0,0,0,0,0,0,0,0,0,0,0],"sum_hessian":[1.8822345E2,6.799092E1,1.2023253E2,6.499824E0,6.1491096E1,1.0373347E2,1.6499063E1,8.999243E0,5.2491856E1,9.12347E1,1.2498764E1,8.648522E1,4.749479E0,1.6248915E1,7.023631E1],"tree_param":{"num_deleted":"10","num_feature":"38","num_nodes":"15","size_leaf_vector":"0"}},{"base_weights":[-0E0,-5.068403E-1,5.2585775E-1,-0E0,-5.6958294E-1,-0E0,5.9572583E-1,-6.264536E-1,-0E0,6.389217E-1,-0E0,-6.6937566E-1,-0E0,-6.8692774E-1,-0E0],"categories":[],"categories_nodes":[],"categories_segments":[],"categories_sizes":[],"default_left":[1,1,1,1,1,1,1,1,1,1,1,1,1,1,1],"id":6,"left_children":[1,-1,-1,-1,-1,-1,-1,-1,-1,-1,-1,-1,-1,-1,-1],"loss_changes":[4.951206E1,4.640526E0,2.8631325E0,0E0,4.223713E0,0E0,1.805542E0,1.2119026E0,0E0,0E0,0E0,2.5180817E-2,0E0,0E0,0E0],"parents":[2147483647,0,0,1,1,2,2,4,4,6,6,7,7,11,11],"right_children":[2,-1,-1,-1,-1,-1,-1,-1,-1,-1,-1,-1,-1,-1,-1],"split_conditions":[3.494253E-4,-4.6658884E-3,4.8409603E-3,-0E0,-5.243487E-3,-0E0,5.4841544E-3,-5.767029E-3,-0E0,5.881808E-3,-0E0,-6.1621624E-3,-0E0,-6.323744E-3,-0E0],"split_indices":[29,25,33,2147483647,2147483647,2147483647,2147483647,2147483647,2147483647,2147483647,2147483647,2147483647,2147483647,2147483647,2147483647],"split_type":[0,0,0,0,0,0,0,0,0,0,0,0,0,0,0],"sum_hessian":[1.8271405E2,1.0747773E2,7.523632E1,8.49885E0,9.897888E1,8.999575E0,6.623675E1,9.222957E1,6.7493114E0,6.173745E1,4.4992976E0,8.3230125E1,8.999444E0,7.898071E1,4.249416E0],"tree_param":{"num_deleted":"12","num_feature":"38","num_nodes":"15","size_leaf_vector":"0"}},{"base_weights":[-0E0,3.443212E-1,-5.1144564E-1,-0E0,4.6275565E-1,-0E0,-5.445204E-1,5.165304E-1,-0E0,-0E0,-5.7021016E-1,-0E0,5.6909627E-1,6.229166E-1,-0E0],"categories":[],"categories_nodes":[],"categories_segments":[],"categories_sizes":[],"default_left":[1,1,1,0,1,1,1,1,1,1,1,1,1,1,1],"id":7,"left_children":[1,3,-1,-1,-1,-1,-1,-1,-1,-1,-1,-1,-1,-1,-1],"loss_changes":[3.4197346E1,7.070238E0,1.2741413E0,0E0,3.5287971E0,0E0,8.961258E-1,1.4909E0,0E0,0E0,0E0,0E0,7.733078E-1,0E0,0E0],"parents":[2147483647,0,0,1,1,2,2,4,4,6,6,7,7,12,12],"right_children":[2,4,-1,-1,-1,-1,-1,-1,-1,-1,-1,-1,-1,-1,-1],"split_conditions":[7.5E0,-2.75E2,-4.7082845E-3,-0E0,4.2600525E-3,-0E0,-5.012765E-3,4.755094E-3,-0E0,-0E0,-5.249261E-3,-0E0,5.239007E-3,5.734468E-3,-0E0],"split_indices":[27,37,14,0,17,2147483647,2147483647,2147483647,2147483647,2147483647,2147483647,2147483647,2147483647,2147483647,2147483647],"split_type":[0,0,0,0,0,0,0,0,0,0,0,0,0,0,0],"sum_hessian":[1.8145328E2,9.822982E1,8.3223465E1,1.17483E1,8.648152E1,5.7482505E0,7.747521E1,8.223213E1,4.249387E0,4.2488494E0,7.3226364E1,1.0248713E1,7.198342E1,6.1734695E1,1.0248728E1],"tree_param":{"num_deleted":"10","num_feature":"38","num_nodes":"15","size_leaf_vector":"0"}},{"base_weights":[-0E0,-5.466846E-1,3.4143454E-1,-6.0417384E-1,-0E0,-0E0,4.795067E-1,-6.5011936E-1,-0E0,5.4020727E-1,-0E0,-0E0,5.6214267E-1,5.8335024E-1,-0E0],"categories":[],"categories_nodes":[],"categories_segments":[],"categories_sizes":[],"default_left":[1,1,1,1,1,0,1,1,1,1,1,1,1,1,1],"id":8,"left_children":[1,-1,5,-1,-1,-1,-1,-1,-1,-1,-1,-1,-1,-1,-1],"loss_changes":[3.7156517E1,2.125393E0,8.86376E0,2.2114868E0,0E0,0E0,3.473009E0,0E0,0E0,6.650009E-1,0E0,0E0,3.8302994E-1,0E0,0E0],"parents":[2147483647,0,0,1,1,2,2,3,3,6,6,9,9,12,12],"right_children":[2,-1,6,-1,-1,-1,-1,-1,-1,-1,-1,-1,-1,-1,-1],"split_conditions":[-5E-1,-5.032689E-3,-2.975E2,-5.561925E-3,-0E0,-0E0,4.41426E-3,-5.984892E-3,-0E0,4.9730595E-3,-0E0,-0E0,5.174993E-3,5.3702267E-3,-0E0],"split_indices":[32,37,37,2147483647,2147483647,0,3,2147483647,2147483647,2147483647,2147483647,2147483647,2147483647,2147483647,2147483647],"split_type":[0,0,0,0,0,0,0,0,0,0,0,0,0,0,0],"sum_hessian":[1.8244225E2,8.24691E1,9.9973145E1,7.297098E1,9.498128E0,1.1748729E1,8.822442E1,6.7973175E1,4.9978037E0,8.097621E1,7.248206E0,4.249311E0,7.67269E1,7.222822E1,4.498681E0],"tree_param":{"num_deleted":"10","num_feature":"38","num_nodes":"15","size_leaf_vector":"0"}},{"base_weights":[-0E0,2.9884142E-1,-5.513052E-1,4.937378E-1,-0E0,-5.873018E-1,-0E0,-0E0,5.3083366E-1,-0E0,-6.1452013E-1,-6.398875E-1,-0E0],"categories":[],"categories_nodes":[],"categories_segments":[],"categories_sizes":[],"default_left":[1,1,1,1,0,1,1,1,1,1,1,1,1],"id":9,"left_children":[1,3,-1,-1,-1,-1,-1,-1,-1,-1,-1,-1,-1],"loss_changes":[3.534988E1,5.85394E0,2.142271E0,9.1525173E-1,0E0,1.1360111E0,0E0,0E0,0E0,0E0,6.886387E-1,0E0,0E0],"parents":[2147483647,0,0,1,1,2,2,3,3,5,5,10,10],"right_children":[2,4,-1,-1,-1,-1,-1,-1,-1,-1,-1,-1,-1],"split_conditions":[3.5E0,-1.15E1,-5.075225E-3,4.545269E-3,-0E0,-5.4066037E-3,-0E0,-0E0,4.8867674E-3,-0E0,-5.6571714E-3,-5.8906996E-3,-0E0],"split_indices":[27,25,36,18,0,2147483647,2147483647,2147483647,2147483647,2147483647,2147483647,2147483647,2147483647],"split_type":[0,0,0,0,0,0,0,0,0,0,0,0,0],"sum_hessian":[1.8017888E2,9.421921E1,8.595967E1,5.7226265E1,3.6992943E1,8.171174E1,4.2479258E0,4.7482224E0,5.2478043E1,4.2480755E0,7.746367E1,7.296547E1,4.498196E0],"tree_param":{"num_deleted":"8","num_feature":"38","num_nodes":"13","size_leaf_vector":"0"}},{"base_weights":[-0E0,-3.6431348E-1,3.8010925E-1,-4.6651825E-1,-0E0,-0E0,4.5241505E-1,-5.2549374E-1,-0E0,-0E0,5.1186293E-1,-5.978726E-1,-0E0,5.597078E-1,-0E0,-6.603548E-1,-0E0,-7.011067E-1,-0E0,-0E0,-7.23544E-1],"categories":[],"categories_nodes":[],"categories_segments":[],"categories_sizes":[],"default_left":[1,1,1,1,0,1,1,1,0,1,1,1,0,1,1,1,1,1,1,1,1],"id":10,"left_children":[1,3,-1,7,-1,-1,-1,11,-1,-1,-1,-1,-1,-1,-1,-1,-1,-1,-1,-1,-1],"loss_changes":[2.5903809E1,7.1532297E0,2.6351738E0,4.692543E0,0E0,0E0,1.9206238E0,4.9477596E0,0E0,0E0,1.2896652E0,4.0860233E0,0E0,0E0,0E0,2.311882E0,0E0,2.3804855E-1,0E0,0E0,0E0],"parents":[2147483647,0,0,1,1,2,2,3,3,6,6,7,7,10,10,11,11,15,15,17,17],"right_children":[2,4,-1,8,-1,-1,-1,12,-1,-1,-1,-1,-1,-1,-1,-1,-1,-1,-1,-1,-1],"split_conditions":[3.7169596E-4,1.57E2,3.4992234E-3,4.165E1,-0E0,-0E0,4.1648587E-3,1.075E-1,-0E0,-0E0,4.712126E-3,-5.503917E-3,-0E0,5.1525785E-3,-0E0,-6.079118E-3,-0E0,-6.4542736E-3,-0E0,-0E0,-6.6608274E-3],"split_indices":[29,37,33,36,0,2147483647,2147483647,30,0,2147483647,2147483647,5,0,2147483647,2147483647,2147483647,2147483647,2147483647,2147483647,2147483647,2147483647],"split_type":[0,0,0,0,0,0,0,0,0,0,0,0,0,0,0,0,0,0,0,0,0],"sum_hessian":[1.841643E2,1.0844811E2,7.57162E1,9.820012E1,1.0247992E1,9.9987E0,6.57175E1,9.39524E1,4.247721E0,7.498143E0,5.8219357E1,8.595517E1,7.9972296E0,5.247138E1,5.747978E0,7.945787E1,6.497298E0,7.496032E1,4.497555E0,4.2479177E0,7.07124E1],"tree_param":{"num_deleted":"12","num_feature":"38","num_nodes":"21","size_leaf_vector":"0"}},{"base_weights":[-0E0,3.755899E-1,-3.029733E-1,-0E0,5.424125E-1,-3.9097714E-1,-0E0,-0E0,6.648726E-1,-4.833482E-1,-0E0,-0E0,6.96122E-1,-5.113948E-1,-0E0,-5.334414E-1,-0E0],"categories":[],"categories_nodes":[],"categories_segments":[],"categories_sizes":[],"default_left":[1,1,1,0,1,1,0,0,1,1,1,1,1,1,1,1,1],"id":11,"left_children":[1,3,5,-1,7,-1,-1,-1,-1,-1,-1,-1,-1,-1,-1,-1,-1],"loss_changes":[2.1289478E1,8.939486E0,5.028717E0,0E0,5.8958073E0,2.936078E0,0E0,0E0,1.9868469E-1,5.938015E-1,0E0,0E0,0E0,3.6741447E-1,0E0,0E0,0E0],"parents":[2147483647,0,0,1,1,2,2,4,4,5,5,8,8,9,9,13,13],"right_children":[2,4,6,-1,8,-1,-1,-1,-1,-1,-1,-1,-1,-1,-1,-1,-1],"split_conditions":[-5E-1,-5E-1,6.5E0,-0E0,-5.089668E-2,-3.5992714E-3,-0E0,-0E0,6.120708E-3,-4.449624E-3,-0E0,-0E0,6.408385E-3,-4.7078165E-3,-0E0,-4.910774E-3,-0E0],"split_indices":[23,33,31,0,18,21,0,0,20,2147483647,2147483647,2147483647,2147483647,2147483647,2147483647,2147483647,2147483647],"split_type":[0,0,0,0,0,0,0,0,0,0,0,0,0,0,0,0,0],"sum_hessian":[1.8539655E2,7.6961136E1,1.0843541E2,1.0746471E1,6.621467E1,9.718922E1,1.1246196E1,9.496234E0,5.671843E1,7.544787E1,2.174135E1,4.74855E0,5.1969883E1,6.9450195E1,5.9976726E0,6.4952805E1,4.4973874E0],"tree_param":{"num_deleted":"8","num_feature":"38","num_nodes":"17","size_leaf_vector":"0"}},{"base_weights":[-0E0,3.889707E-1,-4.296169E-1,-0E0,4.4936728E-1,-5.8613145E-1,-0E0,-0E0,5.155349E-1,-6.27329E-1,-0E0,-0E0,-6.634703E-1],"categories":[],"categories_nodes":[],"categories_segments":[],"categories_sizes":[],"default_left":[1,1,1,1,1,1,0,1,1,1,1,1,1],"id":12,"left_children":[1,-1,5,-1,-1,-1,-1,-1,-1,-1,-1,-1,-1],"loss_changes":[3.280722E1,2.0567608E0,9.06003E0,0E0,2.24012E0,2.6056213E0,0E0,0E0,0E0,9.8259354E-1,0E0,0E0,0E0],"parents":[2147483647,0,0,1,1,2,2,4,4,5,5,9,9],"right_children":[2,-1,6,-1,-1,-1,-1,-1,-1,-1,-1,-1,-1],"split_conditions":[-6.5E0,3.5808005E-3,5E-1,-0E0,4.1368017E-3,-5.39583E-3,-0E0,-0E0,4.7459295E-3,-5.7750875E-3,-0E0,-0E0,-6.107799E-3],"split_indices":[27,37,32,2147483647,2147483647,36,0,2147483647,2147483647,2147483647,2147483647,2147483647,2147483647],"split_type":[0,0,0,0,0,0,0,0,0,0,0,0,0],"sum_hessian":[1.868856E2,7.145522E1,1.15430374E2,8.247364E0,6.3207863E1,8.743403E1,2.799635E1,7.249615E0,5.5958244E1,8.268685E1,4.7471795E0,6.7489586E0,7.593789E1],"tree_param":{"num_deleted":"8","num_feature":"38","num_nodes":"13","size_leaf_vector":"0"}},{"base_weights":[-0E0,4.8358324E-1,-5.666207E-1,-0E0,6.5379924E-1,-6.969196E-1,-0E0,6.8759906E-1,-0E0,-7.4439573E-1,-0E0],"categories":[],"categories_nodes":[],"categories_segments":[],"categories_sizes":[],"default_left":[1,1,1,0,1,1,0,1,1,1,1],"id":13,"left_children":[1,3,5,-1,-1,-1,-1,-1,-1,-1,-1],"loss_changes":[5.3884212E1,1.0833868E1,7.712328E0,0E0,1.5285873E0,2.185337E0,0E0,0E0,0E0,0E0,0E0],"parents":[2147483647,0,0,1,1,2,2,4,4,5,5],"right_children":[2,4,6,-1,-1,-1,-1,-1,-1,-1,-1],"split_conditions":[0E0,-5E-1,5E-1,-0E0,6.0187685E-3,-6.4157275E-3,-0E0,6.3299243E-3,-0E0,-6.852785E-3,-0E0],"split_indices":[27,32,32,0,12,36,0,2147483647,2147483647,2147483647,2147483647],"split_type":[0,0,0,0,0,0,0,0,0,0,0],"sum_hessian":[1.8986052E2,9.419105E1,9.566947E1,1.8247494E1,7.594355E1,7.8421555E1,1.7247921E1,7.1696655E1,4.246898E0,7.242706E1,5.994494E0],"tree_param":{"num_deleted":"4","num_feature":"38","num_nodes":"11","size_leaf_vector":"0"}},{"base_weights":[-0E0,2.95875E-1,-6.176469E-1,-0E0,4.9151418E-1,-6.716825E-1,-0E0,-0E0,5.246044E-1,-7.06292E-1,-0E0,5.7297415E-1,-0E0,-7.440866E-1,-0E0,6.0200703E-1,-0E0],"categories":[],"categories_nodes":[],"categories_segments":[],"categories_sizes":[],"default_left":[1,1,1,0,1,1,1,1,1,1,1,1,1,1,1,1,1],"id":14,"left_children":[1,3,-1,-1,-1,-1,-1,-1,-1,-1,-1,-1,-1,-1,-1,-1,-1],"loss_changes":[4.20973E1,1.0370179E1,2.5457497E0,0E0,1.5286808E0,1.6483154E0,0E0,0E0,6.707783E-1,3.6165237E-1,0E0,6.131363E-1,0E0,0E0,0E0,0E0,0E0],"parents":[2147483647,0,0,1,1,2,2,4,4,5,5,8,8,9,9,11,11],"right_children":[2,4,-1,-1,-1,-1,-1,-1,-1,-1,-1,-1,-1,-1,-1,-1,-1],"split_conditions":[5.5E0,-5E-1,-5.6859558E-3,-0E0,4.524799E-3,-6.1833984E-3,-0E0,-0E0,4.8294216E-3,-6.502008E-3,-0E0,5.274706E-3,-0E0,-6.8499395E-3,-0E0,5.541978E-3,-0E0],"split_indices":[25,32,32,0,29,2147483647,2147483647,2147483647,2147483647,2147483647,2147483647,2147483647,2147483647,2147483647,2147483647,2147483647,2147483647],"split_type":[0,0,0,0,0,0,0,0,0,0,0,0,0,0,0,0,0],"sum_hessian":[1.8558418E2,1.0092303E2,8.466115E1,2.2738857E1,7.818417E1,7.691235E1,7.7487936E0,4.248906E0,7.3935265E1,7.266689E1,4.245462E0,6.368958E1,1.0245685E1,6.5921844E1,6.745047E0,5.919274E1,4.49684E0],"tree_param":{"num_deleted":"12","num_feature":"38","num_nodes":"17","size_leaf_vector":"0"}},{"base_weights":[-0E0,4.2229357E-1,-4.598335E-1,-0E0,5.0626117E-1,-5.199291E-1,-0E0,-0E0,5.989344E-1,-5.6758904E-1,-0E0,-0E0,6.45536E-1,-5.9383035E-1,-0E0],"categories":[],"categories_nodes":[],"categories_segments":[],"categories_sizes":[],"default_left":[1,1,1,1,1,1,1,1,1,1,1,1,1,1,1],"id":15,"left_children":[1,-1,-1,-1,-1,-1,-1,-1,-1,-1,-1,-1,-1,-1,-1],"loss_changes":[3.5978455E1,3.8959904E0,2.549837E0,0E0,2.750885E0,2.174673E0,0E0,0E0,1.9675922E0,6.462593E-1,0E0,0E0,0E0,0E0,0E0],"parents":[2147483647,0,0,1,1,2,2,4,4,5,5,8,8,9,9],"right_children":[2,-1,-1,-1,-1,-1,-1,-1,-1,-1,-1,-1,-1,-1,-1],"split_conditions":[1.5E0,3.8875653E-3,-4.2331517E-3,-0E0,4.660557E-3,-4.786382E-3,-0E0,-0E0,5.513692E-3,-5.2251318E-3,-0E0,-0E0,5.9426986E-3,-5.4667047E-3,-0E0],"split_indices":[27,33,33,2147483647,2147483647,2147483647,2147483647,2147483647,2147483647,2147483647,2147483647,2147483647,2147483647,2147483647,2147483647],"split_type":[0,0,0,0,0,0,0,0,0,0,0,0,0,0,0],"sum_hessian":[1.8106978E2,9.392172E1,8.7148056E1,1.3996779E1,7.992495E1,7.71507E1,9.997353E0,1.5739032E1,6.418591E1,7.115741E1,5.99329E0,4.497434E0,5.968848E1,6.6662315E1,4.4950943E0],"tree_param":{"num_deleted":"12","num_feature":"38","num_nodes":"15","size_leaf_vector":"0"}},{"base_weights":[-0E0,-4.2624062E-1,4.9242762E-1,-5.158684E-1,-0E0,-0E0,5.9073585E-1,-5.997513E-1,-0E0,-0E0,6.138772E-1,-6.471407E-1,-0E0],"categories":[],"categories_nodes":[],"categories_segments":[],"categories_sizes":[],"default_left":[1,1,1,1,0,1,1,1,1,1,1,1,1],"id":16,"left_children":[1,3,-1,-1,-1,-1,-1,-1,-1,-1,-1,-1,-1],"loss_changes":[3.76817E1,6.030836E0,4.4623375E0,3.9492188E0,0E0,0E0,4.4193268E-2,2.6713142E0,0E0,0E0,0E0,0E0,0E0],"parents":[2147483647,0,0,1,1,2,2,3,3,6,6,7,7],"right_children":[2,4,-1,-1,-1,-1,-1,-1,-1,-1,-1,-1,-1],"split_conditions":[6.929242E-4,1.155E2,4.533208E-3,-4.749E-3,-0E0,-0E0,5.4382174E-3,-5.521212E-3,-0E0,-0E0,5.6512523E-3,-5.9574707E-3,-0E0],"split_indices":[29,37,32,32,0,2147483647,2147483647,2147483647,2147483647,2147483647,2147483647,2147483647,2147483647],"split_type":[0,0,0,0,0,0,0,0,0,0,0,0,0],"sum_hessian":[1.8104066E2,1.1661632E2,6.442434E1,1.01623474E2,1.4992847E1,7.4990215E0,5.6925316E1,8.562853E1,1.5994942E1,4.245868E0,5.2679447E1,7.9635056E1,5.9934735E0],"tree_param":{"num_deleted":"8","num_feature":"38","num_nodes":"13","size_leaf_vector":"0"}},{"base_weights":[-0E0,-2.9251894E-1,3.7487853E-1,-4.9742886E-1,-0E0,-0E0,4.693586E-1,-5.510893E-1,-0E0,5.43638E-1,-0E0,-0E0,-6.026309E-1,-6.475132E-1,-0E0],"categories":[],"categories_nodes":[],"categories_segments":[],"categories_sizes":[],"default_left":[1,1,1,1,0,1,1,1,1,1,1,1,1,1,1],"id":17,"left_children":[1,3,-1,-1,-1,-1,-1,-1,-1,-1,-1,-1,-1,-1,-1],"loss_changes":[2.000861E1,1.0036151E1,4.045327E0,3.0429764E0,0E0,0E0,3.6537924E0,2.8247967E0,0E0,0E0,0E0,0E0,1.2297745E0,0E0,0E0],"parents":[2147483647,0,0,1,1,2,2,3,3,6,6,7,7,12,12],"right_children":[2,4,-1,-1,-1,-1,-1,-1,-1,-1,-1,-1,-1,-1,-1],"split_conditions":[2.35E-2,5E-1,3.4510703E-3,-4.5792484E-3,-0E0,-0E0,4.320838E-3,-5.0732377E-3,-0E0,5.004642E-3,-0E0,-0E0,-5.5477214E-3,-5.9609003E-3,-0E0],"split_indices":[30,21,37,36,0,2147483647,2147483647,2147483647,2147483647,2147483647,2147483647,2147483647,2147483647,2147483647,2147483647],"split_type":[0,0,0,0,0,0,0,0,0,0,0,0,0,0,0],"sum_hessian":[1.825196E2,1.1110072E2,7.1418884E1,7.7635086E1,3.3465637E1,8.240796E0,6.3178085E1,7.289075E1,4.744338E0,5.8932133E1,4.2459517E0,4.4937925E0,6.839695E1,6.190146E1,6.495493E0],"tree_param":{"num_deleted":"10","num_feature":"38","num_nodes":"15","size_leaf_vector":"0"}},{"base_weights":[-0E0,-3.9349923E-1,5.1959455E-1,-5.5213964E-1,-0E0,-0E0,5.7127595E-1,-5.822198E-1,-0E0,6.065164E-1,-0E0,-6.1475116E-1,-0E0],"categories":[],"categories_nodes":[],"categories_segments":[],"categories_sizes":[],"default_left":[1,1,1,1,0,1,1,1,1,1,1,1,1],"id":18,"left_children":[1,3,-1,-1,-1,-1,-1,-1,-1,-1,-1,-1,-1],"loss_changes":[3.692622E1,7.6330624E0,2.8742275E0,1.1779041E0,0E0,0E0,1.0385361E0,1.2159405E0,0E0,0E0,0E0,0E0,0E0],"parents":[2147483647,0,0,1,1,2,2,3,3,6,6,7,7],"right_children":[2,4,-1,-1,-1,-1,-1,-1,-1,-1,-1,-1,-1],"split_conditions":[5E-1,1.18636424E-4,4.783302E-3,-5.0829067E-3,-0E0,-0E0,5.2590724E-3,-5.3598196E-3,-0E0,5.5834907E-3,-0E0,-5.6592985E-3,-0E0],"split_indices":[32,29,29,36,0,2147483647,2147483647,2147483647,2147483647,2147483647,2147483647,2147483647,2147483647],"split_type":[0,0,0,0,0,0,0,0,0,0,0,0,0],"sum_hessian":[1.7601492E2,9.960464E1,7.6410286E1,7.461608E1,2.498855E1,4.7482405E0,7.166205E1,7.037295E1,4.243135E0,6.616741E1,5.4946337E0,6.612749E1,4.24546E0],"tree_param":{"num_deleted":"8","num_feature":"38","num_nodes":"13","size_leaf_vector":"0"}},{"base_weights":[-0E0,-4.7824645E-1,4.1407517E-1,-5.7575893E-1,-0E0,-0E0,5.3646547E-1,-6.0959345E-1,-0E0,-6.4279574E-1,-0E0],"categories":[],"categories_nodes":[],"categories_segments":[],"categories_sizes":[],"default_left":[1,1,1,1,0,1,1,1,1,1,1],"id":19,"left_children":[1,3,-1,-1,-1,-1,-1,-1,-1,-1,-1],"loss_changes":[3.6757126E1,6.827671E0,4.669574E0,1.9763718E0,0E0,0E0,0E0,7.0412827E-1,0E0,0E0,0E0],"parents":[2147483647,0,0,1,1,2,2,3,3,7,7],"right_children":[2,4,-1,-1,-1,-1,-1,-1,-1,-1,-1],"split_conditions":[5E-1,8.9880684E-4,3.811908E-3,-5.300342E-3,-0E0,-0E0,4.938613E-3,-5.6118174E-3,-0E0,-5.9174723E-3,-0E0],"split_indices":[32,29,1,28,0,2147483647,2147483647,2147483647,2147483647,2147483647,2147483647],"split_type":[0,0,0,0,0,0,0,0,0,0,0],"sum_hessian":[1.7623528E2,9.9835144E1,7.640013E1,8.884041E1,1.0994738E1,1.5490074E1,6.091006E1,8.434861E1,4.491799E0,7.735701E1,6.9915953E0],"tree_param":{"num_deleted":"6","num_feature":"38","num_nodes":"11","size_leaf_vector":"0"}},{"base_weights":[-0E0,3.7655246E-1,-4.7636306E-1,-0E0,5.099962E-1,-5.7772243E-1,-0E0,-0E0,5.91324E-1,-0E0,-6.1369574E-1,6.1899203E-1,-0E0],"categories":[],"categories_nodes":[],"categories_segments":[],"categories_sizes":[],"default_left":[1,1,1,0,1,1,1,1,1,1,1,1,1],"id":20,"left_children":[1,3,-1,-1,-1,-1,-1,-1,-1,-1,-1,-1,-1],"loss_changes":[3.528833E1,6.4332066E0,4.387125E0,0E0,4.100668E0,1.2158527E0,0E0,0E0,6.355934E-1,0E0,0E0,0E0,0E0],"parents":[2147483647,0,0,1,1,2,2,4,4,5,5,8,8],"right_children":[2,4,-1,-1,-1,-1,-1,-1,-1,-1,-1,-1,-1],"split_conditions":[2.5E0,-5E-1,-4.38532E-3,-0E0,4.694941E-3,-5.3184177E-3,-0E0,-0E0,5.443631E-3,-0E0,-5.6495825E-3,5.698339E-3,-0E0],"split_indices":[27,32,32,0,18,2147483647,2147483647,2147483647,2147483647,2147483647,2147483647,2147483647,2147483647],"split_type":[0,0,0,0,0,0,0,0,0,0,0,0,0],"sum_hessian":[1.8869547E2,9.737427E1,9.13212E1,2.0492529E1,7.688174E1,7.457398E1,1.6747211E1,8.493207E0,6.8388535E1,5.4922976E0,6.908169E1,6.3890453E1,4.498079E0],"tree_param":{"num_deleted":"8","num_feature":"38","num_nodes":"13","size_leaf_vector":"0"}},{"base_weights":[-0E0,-4.1831484E-1,5.4039204E-1,-4.742284E-1,-0E0,-0E0,6.1065316E-1,-5.07973E-1,-0E0,-5.8063614E-1,-0E0,-6.207575E-1,-0E0],"categories":[],"categories_nodes":[],"categories_segments":[],"categories_sizes":[],"default_left":[1,1,1,1,1,1,1,1,1,1,1,1,1],"id":21,"left_children":[1,-1,-1,-1,-1,-1,-1,-1,-1,-1,-1,-1,-1],"loss_changes":[4.1048683E1,3.2853374E0,2.1302986E0,1.9456196E0,0E0,0E0,0E0,1.2945862E0,0E0,6.50486E-1,0E0,0E0,0E0],"parents":[2147483647,0,0,1,1,2,2,3,3,7,7,9,9],"right_children":[2,-1,-1,-1,-1,-1,-1,-1,-1,-1,-1,-1,-1],"split_conditions":[5E-1,-3.8509378E-3,4.9747606E-3,-4.365669E-3,-0E0,-0E0,5.621573E-3,-4.6763164E-3,-0E0,-5.345241E-3,-0E0,-5.714592E-3,-0E0],"split_indices":[32,18,4,2147483647,2147483647,2147483647,2147483647,2147483647,2147483647,2147483647,2147483647,2147483647,2147483647],"split_type":[0,0,0,0,0,0,0,0,0,0,0,0,0],"sum_hessian":[1.781745E2,1.02048935E2,7.612557E1,9.355541E1,8.493524E0,1.1243503E1,6.488207E1,8.88143E1,4.7411113E0,7.1333206E1,1.7481092E1,6.384094E1,7.492266E0],"tree_param":{"num_deleted":"10","num_feature":"38","num_nodes":"13","size_leaf_vector":"0"}},{"base_weights":[-0E0,-5.513386E-1,3.4229138E-1,-6.508638E-1,-0E0,-0E0,5.758256E-1,-6.883884E-1,-0E0,-0E0,5.999842E-1],"categories":[],"categories_nodes":[],"categories_segments":[],"categories_sizes":[],"default_left":[1,1,1,1,0,0,1,1,1,1,1],"id":22,"left_children":[1,3,5,-1,-1,-1,-1,-1,-1,-1,-1],"loss_changes":[3.8351627E1,5.4291325E0,7.4800043E0,1.803421E0,0E0,0E0,1.1128235E-1,0E0,0E0,0E0,0E0],"parents":[2147483647,0,0,1,1,2,2,3,3,6,6],"right_children":[2,4,6,-1,-1,-1,-1,-1,-1,-1,-1],"split_conditions":[-5E-1,3.425778E-4,6.3245464E-4,-5.9917457E-3,-0E0,-0E0,5.300956E-3,-6.3371905E-3,-0E0,-0E0,5.523356E-3],"split_indices":[32,29,29,35,0,0,18,2147483647,2147483647,2147483647,2147483647],"split_type":[0,0,0,0,0,0,0,0,0,0,0],"sum_hessian":[1.8313957E2,8.5797005E1,9.734257E1,7.3798996E1,1.1998005E1,4.1717762E1,5.5624805E1,6.956006E1,4.238941E0,4.242568E0,5.1382236E1],"tree_param":{"num_deleted":"4","num_feature":"38","num_nodes":"11","size_leaf_vector":"0"}},{"base_weights":[-0E0,-4.751957E-1,2.9095107E-1,-0E0,-5.963557E-1,-0E0,3.6101305E-1,-6.1624813E-1,-0E0,-0E0,3.9645618E-1,4.321875E-1,-0E0,4.4985357E-1,-0E0],"categories":[],"categories_nodes":[],"categories_segments":[],"categories_sizes":[],"default_left":[1,1,1,0,1,1,1,1,1,1,1,1,1,1,1],"id":23,"left_children":[1,3,-1,-1,-1,-1,-1,-1,-1,-1,-1,-1,-1,-1,-1],"loss_changes":[2.731847E1,8.163429E0,3.713005E0,0E0,2.318592E-1,0E0,1.538765E0,0E0,0E0,0E0,7.8511333E-1,2.8937435E-1,0E0,0E0,0E0],"parents":[2147483647,0,0,1,1,2,2,4,4,6,6,10,10,11,11],"right_children":[2,4,-1,-1,-1,-1,-1,-1,-1,-1,-1,-1,-1,-1,-1],"split_conditions":[-5E-1,-1.65E1,2.6784479E-3,-0E0,-5.4899524E-3,-0E0,3.323427E-3,-5.6730793E-3,-0E0,-0E0,3.6497104E-3,3.9786473E-3,-0E0,4.141278E-3,-0E0],"split_indices":[32,25,18,0,36,2147483647,2147483647,2147483647,2147483647,2147483647,2147483647,2147483647,2147483647,2147483647,2147483647],"split_type":[0,0,0,0,0,0,0,0,0,0,0,0,0,0,0],"sum_hessian":[1.7836897E2,8.203727E1,9.633171E1,7.7453003E0,7.429197E1,5.99411E0,9.03376E1,7.005293E1,4.239031E0,5.9918146E0,8.434579E1,7.485275E1,9.493032E0,7.036065E1,4.4921064E0],"tree_param":{"num_deleted":"10","num_feature":"38","num_nodes":"15","size_leaf_vector":"0"}},{"base_weights":[-0E0,-5.830317E-1,3.5087875E-1,-6.422577E-1,-0E0,5.375705E-1,-0E0],"categories":[],"categories_nodes":[],"categories_segments":[],"categories_sizes":[],"default_left":[1,1,1,1,1,0,0],"id":24,"left_children":[1,-1,5,-1,-1,-1,-1],"loss_changes":[4.179948E1,2.464281E0,8.761896E0,0E0,0E0,0E0,0E0],"parents":[2147483647,0,0,1,1,2,2],"right_children":[2,-1,6,-1,-1,-1,-1],"split_conditions":[-5E-1,-5.3672944E-3,0E0,-5.912519E-3,-0E0,4.9487855E-3,-0E0],"split_indices":[32,37,27,2147483647,2147483647,0,0],"split_type":[0,0,0,0,0,0,0],"sum_hessian":[1.8557924E2,8.3017075E1,1.0256217E2,7.402422E1,8.992849E0,7.283371E1,2.9728464E1],"tree_param":{"num_deleted":"2","num_feature":"38","num_nodes":"7","size_leaf_vector":"0"}},{"base_weights":[-0E0,3.115166E-1,-4.3329853E-1,-0E0,4.072646E-1,-5.0293356E-1,-0E0,-5.6192696E-1,-0E0,-5.8649397E-1,-0E0],"categories":[],"categories_nodes":[],"categories_segments":[],"categories_sizes":[],"default_left":[1,1,1,1,1,1,1,1,1,1,1],"id":25,"left_children":[1,-1,-1,-1,-1,-1,-1,-1,-1,-1,-1],"loss_changes":[2.6980534E1,2.8866692E0,4.5449505E0,0E0,0E0,3.7932796E0,0E0,5.838165E-1,0E0,0E0,0E0],"parents":[2147483647,0,0,1,1,2,2,5,5,7,7],"right_children":[2,-1,-1,-1,-1,-1,-1,-1,-1,-1,-1],"split_conditions":[0E0,2.8677708E-3,-3.988875E-3,-0E0,3.749211E-3,-4.629924E-3,-0E0,-5.1730075E-3,-0E0,-5.399167E-3,-0E0],"split_indices":[27,30,36,2147483647,2147483647,2147483647,2147483647,2147483647,2147483647,2147483647,2147483647],"split_type":[0,0,0,0,0,0,0,0,0,0,0],"sum_hessian":[1.8252954E2,8.681941E1,9.571013E1,1.947383E1,6.734558E1,8.847932E1,7.230815E0,8.248039E1,5.998922E0,7.7243744E1,5.236647E0],"tree_param":{"num_deleted":"8","num_feature":"38","num_nodes":"11","size_leaf_vector":"0"}},{"base_weights":[-0E0,-4.0755948E-1,3.878033E-1,-5.697573E-1,-0E0,-0E0,5.21497E-1,-5.910107E-1,-0E0,-0E0,5.5408555E-1,-0E0,-6.135433E-1],"categories":[],"categories_nodes":[],"categories_segments":[],"categories_sizes":[],"default_left":[1,1,1,1,0,0,1,1,1,1,1,1,1],"id":26,"left_children":[1,3,5,-1,-1,-1,-1,-1,-1,-1,-1,-1,-1],"loss_changes":[2.940846E1,8.220354E0,7.2942295E0,3.738556E-1,0E0,0E0,5.773392E-1,1.4216232E-1,0E0,0E0,0E0,0E0,0E0],"parents":[2147483647,0,0,1,1,2,2,3,3,6,6,7,7],"right_children":[2,4,6,-1,-1,-1,-1,-1,-1,-1,-1,-1,-1],"split_conditions":[5E-1,5E-1,-1.34E2,-5.245092E-3,-0E0,-0E0,4.800816E-3,-5.4407474E-3,-0E0,-0E0,5.1008207E-3,-0E0,-5.6481785E-3],"split_indices":[32,21,37,18,0,0,1,2147483647,2147483647,2147483647,2147483647,2147483647,2147483647],"split_type":[0,0,0,0,0,0,0,0,0,0,0,0,0],"sum_hessian":[1.8051192E2,1.02446465E2,7.806546E1,7.673822E1,2.5708246E1,8.994577E0,6.9070885E1,7.224326E1,4.494955E0,6.240283E0,6.28306E1,4.979585E0,6.726368E1],"tree_param":{"num_deleted":"6","num_feature":"38","num_nodes":"13","size_leaf_vector":"0"}},{"base_weights":[-0E0,-4.7767496E-1,2.8407785E-1,-5.561705E-1,-0E0,4.2777798E-1,-0E0,-5.889434E-1,-0E0,4.9040818E-1,-0E0,-0E0,5.169513E-1],"categories":[],"categories_nodes":[],"categories_segments":[],"categories_sizes":[],"default_left":[1,1,1,1,0,1,0,1,1,1,1,1,1],"id":27,"left_children":[1,3,5,-1,-1,-1,-1,-1,-1,-1,-1,-1,-1],"loss_changes":[2.8258604E1,4.7801094E0,6.3664637E0,1.4140453E0,0E0,1.736886E0,0E0,0E0,0E0,7.1338844E-1,0E0,0E0,0E0],"parents":[2147483647,0,0,1,1,2,2,3,3,5,5,9,9],"right_children":[2,4,6,-1,-1,-1,-1,-1,-1,-1,-1,-1,-1],"split_conditions":[-5E-1,2.08E2,5.5E0,-5.120015E-3,-0E0,3.9380537E-3,-0E0,-5.4217163E-3,-0E0,4.5146174E-3,-0E0,-0E0,4.758969E-3],"split_indices":[32,37,25,29,0,19,0,2147483647,2147483647,2147483647,2147483647,2147483647,2147483647],"split_type":[0,0,0,0,0,0,0,0,0,0,0,0,0],"sum_hessian":[1.8796794E2,8.4449196E1,1.03518745E2,7.720726E1,7.241938E0,7.9292015E1,2.4226727E1,7.270776E1,4.4994926E0,6.70624E1,1.2229615E1,4.2462983E0,6.2816105E1],"tree_param":{"num_deleted":"6","num_feature":"38","num_nodes":"13","size_leaf_vector":"0"}},{"base_weights":[-0E0,3.9037356E-1,-4.1849968E-1,-0E0,4.742509E-1,-0E0,-4.9165434E-1,-0E0,5.518617E-1,-5.584792E-1,-0E0,-0E0,6.4287454E-1,-5.9356916E-1,-0E0,-6.4774E-1,-0E0,-6.687713E-1,-0E0],"categories":[],"categories_nodes":[],"categories_segments":[],"categories_sizes":[],"default_left":[1,1,1,1,1,0,1,1,1,1,1,1,1,1,1,1,1,1,1],"id":28,"left_children":[1,-1,5,-1,-1,-1,-1,-1,-1,-1,-1,-1,-1,-1,-1,-1,-1,-1,-1],"loss_changes":[3.1225431E1,4.2089863E0,5.7441654E0,0E0,3.828308E0,0E0,2.9395332E0,0E0,4.180603E0,1.7766075E0,0E0,0E0,0E0,1.9945049E0,0E0,4.5171738E-2,0E0,0E0,0E0],"parents":[2147483647,0,0,1,1,2,2,4,4,6,6,8,8,9,9,13,13,15,15],"right_children":[2,-1,6,-1,-1,-1,-1,-1,-1,-1,-1,-1,-1,-1,-1,-1,-1,-1,-1],"split_conditions":[-4.5E0,3.593715E-3,-1.45E1,-0E0,4.365876E-3,-0E0,-4.526089E-3,-0E0,5.0803483E-3,-5.1412676E-3,-0E0,-0E0,5.9181973E-3,-5.4643E-3,-0E0,-5.9629884E-3,-0E0,-6.156599E-3,-0E0],"split_indices":[27,33,25,2147483647,2147483647,0,33,2147483647,2147483647,2147483647,2147483647,2147483647,2147483647,2147483647,2147483647,2147483647,2147483647,2147483647,2147483647],"split_type":[0,0,0,0,0,0,0,0,0,0,0,0,0,0,0,0,0,0,0],"sum_hessian":[1.8493025E2,8.077091E1,1.0415934E2,7.993917E0,7.277699E1,5.4937663E0,9.866557E1,6.99826E0,6.577874E1,8.54282E1,1.3237374E1,7.732337E0,5.80464E1,8.04327E1,4.9954987E0,7.196593E1,8.466774E0,6.74844E1,4.4815316E0],"tree_param":{"num_deleted":"14","num_feature":"38","num_nodes":"19","size_leaf_vector":"0"}},{"base_weights":[-0E0,3.5191286E-1,-5.893197E-1,-0E0,5.156581E-1,-6.585891E-1,-0E0,-0E0,5.745135E-1,-7.055322E-1,-0E0,-0E0,6.029257E-1],"categories":[],"categories_nodes":[],"categories_segments":[],"categories_sizes":[],"default_left":[1,1,1,0,1,1,0,1,1,1,1,1,1],"id":29,"left_children":[1,3,5,-1,-1,-1,-1,-1,-1,-1,-1,-1,-1],"loss_changes":[4.2312862E1,5.219693E0,4.7248554E0,0E0,2.7189198E0,2.8117561E0,0E0,0E0,3.883438E-1,0E0,0E0,0E0,0E0],"parents":[2147483647,0,0,1,1,2,2,4,4,5,5,8,8],"right_children":[2,4,6,-1,-1,-1,-1,-1,-1,-1,-1,-1,-1],"split_conditions":[5.5E0,6.9525617E-4,2.6799086E-4,-0E0,4.747064E-3,-6.0628634E-3,-0E0,-0E0,5.288877E-3,-6.4950134E-3,-0E0,-0E0,5.5504353E-3],"split_indices":[25,29,29,0,33,28,0,2147483647,2147483647,2147483647,2147483647,2147483647,2147483647],"split_type":[0,0,0,0,0,0,0,0,0,0,0,0,0],"sum_hessian":[1.8465306E2,1.0197206E2,8.268099E1,3.5948547E1,6.602351E1,7.668634E1,5.9946537E0,4.9969974E0,6.102652E1,7.220501E1,4.481334E0,4.7371626E0,5.6289356E1],"tree_param":{"num_deleted":"6","num_feature":"38","num_nodes":"13","size_leaf_vector":"0"}},{"base_weights":[-0E0,-3.5418245E-1,3.6403847E-1,-0E0,-5.169195E-1,-0E0,4.5126015E-1,-5.433605E-1,-0E0,5.120764E-1,-0E0,-5.698573E-1,-0E0],"categories":[],"categories_nodes":[],"categories_segments":[],"categories_sizes":[],"default_left":[1,1,1,0,1,1,1,1,1,1,1,1,1],"id":30,"left_children":[1,3,-1,-1,-1,-1,-1,-1,-1,-1,-1,-1,-1],"loss_changes":[2.3837955E1,6.7962217E0,4.152836E0,0E0,7.701435E-1,0E0,8.1365585E-2,5.359497E-1,0E0,0E0,0E0,0E0,0E0],"parents":[2147483647,0,0,1,1,2,2,4,4,6,6,7,7],"right_children":[2,4,-1,-1,-1,-1,-1,-1,-1,-1,-1,-1,-1],"split_conditions":[5E-1,3.5E0,3.3512784E-3,-0E0,-4.758676E-3,-0E0,4.1542267E-3,-5.0020874E-3,-0E0,4.7140913E-3,-0E0,-5.246013E-3,-0E0],"split_indices":[32,27,37,0,30,2147483647,2147483647,2147483647,2147483647,2147483647,2147483647,2147483647,2147483647],"split_type":[0,0,0,0,0,0,0,0,0,0,0,0,0],"sum_hessian":[1.8136467E2,1.0284704E2,7.8517624E1,3.0220642E1,7.2626396E1,7.744277E0,7.077335E1,6.814324E1,4.483158E0,5.4811512E1,1.5961839E1,6.341711E1,4.7261314E0],"tree_param":{"num_deleted":"8","num_feature":"38","num_nodes":"13","size_leaf_vector":"0"}},{"base_weights":[-0E0,-5.458503E-1,3.5015652E-1,-5.7982045E-1,-0E0,4.8820233E-1,-0E0,-6.121336E-1,-0E0,-0E0,5.298099E-1,-0E0,-6.432976E-1,5.5272305E-1,-0E0,-6.734894E-1,-0E0,-7.0844984E-1,-0E0],"categories":[],"categories_nodes":[],"categories_segments":[],"categories_sizes":[],"default_left":[1,1,1,1,1,1,0,1,1,1,1,1,1,1,1,1,1,1,1],"id":31,"left_children":[1,-1,5,-1,-1,-1,-1,-1,-1,-1,-1,-1,-1,-1,-1,-1,-1,-1,-1],"loss_changes":[3.864945E1,1.9432449E0,6.692565E0,1.6478062E0,0E0,8.6852455E-1,0E0,1.2640858E0,0E0,0E0,8.818817E-2,0E0,8.447628E-1,0E0,0E0,1.2718372E0,0E0,0E0,0E0],"parents":[2147483647,0,0,1,1,2,2,3,3,5,5,7,7,10,10,12,12,15,15],"right_children":[2,-1,6,-1,-1,-1,-1,-1,-1,-1,-1,-1,-1,-1,-1,-1,-1,-1,-1],"split_conditions":[-5E-1,-5.025008E-3,7.5E0,-5.337732E-3,-0E0,4.4943104E-3,-0E0,-5.6352015E-3,-0E0,-0E0,4.877343E-3,-0E0,-5.922092E-3,5.0882776E-3,-0E0,-6.200033E-3,-0E0,-6.521873E-3,-0E0],"split_indices":[32,4,27,2147483647,2147483647,4,0,2147483647,2147483647,2147483647,2147483647,2147483647,2147483647,2147483647,2147483647,2147483647,2147483647,2147483647,2147483647],"split_type":[0,0,0,0,0,0,0,0,0,0,0,0,0,0,0,0,0,0,0],"sum_hessian":[1.8504793E2,8.6090836E1,9.895709E1,8.184479E1,4.246044E0,7.798689E1,2.0970198E1,7.7618126E1,4.2266665E0,8.984448E0,6.900245E1,4.478076E0,7.3140045E1,6.3521618E1,5.4808264E0,6.841151E1,4.7285404E0,6.4162155E1,4.2493505E0],"tree_param":{"num_deleted":"14","num_feature":"38","num_nodes":"19","size_leaf_vector":"0"}},{"base_weights":[-0E0,-4.0974742E-1,4.1012216E-1,-5.0378376E-1,-0E0,-0E0,5.209804E-1,-5.37093E-1,-0E0,5.872929E-1,-0E0,-5.849307E-1,-0E0,-0E0,6.463221E-1,-0E0,6.655433E-1,6.902028E-1,-0E0],"categories":[],"categories_nodes":[],"categories_segments":[],"categories_sizes":[],"default_left":[1,1,1,1,0,0,1,1,1,1,1,1,1,1,1,1,1,1,1],"id":32,"left_children":[1,3,5,-1,-1,-1,-1,-1,-1,-1,-1,-1,-1,-1,-1,-1,-1,-1,-1],"loss_changes":[3.1704124E1,4.840493E0,8.153687E0,1.3100777E0,0E0,0E0,4.4259205E0,1.3896599E0,0E0,2.7096176E0,0E0,0E0,0E0,0E0,1.3347626E-1,0E0,2.6439285E-1,0E0,0E0],"parents":[2147483647,0,0,1,1,2,2,3,3,6,6,7,7,9,9,14,14,16,16],"right_children":[2,4,6,-1,-1,-1,-1,-1,-1,-1,-1,-1,-1,-1,-1,-1,-1,-1,-1],"split_conditions":[-5E-1,6.35E1,-3.19E2,-4.637751E-3,-0E0,-0E0,4.7960603E-3,-4.9443897E-3,-0E0,5.406522E-3,-0E0,-5.3847763E-3,-0E0,-0E0,5.949935E-3,-0E0,6.1268825E-3,6.3538933E-3,-0E0],"split_indices":[32,37,37,28,0,0,3,2147483647,2147483647,2147483647,2147483647,2147483647,2147483647,2147483647,2147483647,2147483647,2147483647,2147483647,2147483647],"split_type":[0,0,0,0,0,0,0,0,0,0,0,0,0,0,0,0,0,0,0],"sum_hessian":[1.845238E2,7.935852E1,1.0516528E2,7.087313E1,8.485391E0,1.0735778E1,9.4429504E1,6.664913E1,4.223999E0,8.67025E1,7.727008E0,5.9932117E1,6.717012E0,8.98622E0,7.771628E1,4.2399564E0,7.347632E1,6.873041E1,4.74591E0],"tree_param":{"num_deleted":"12","num_feature":"38","num_nodes":"19","size_leaf_vector":"0"}},{"base_weights":[-0E0,3.451065E-1,-4.447214E-1,5.357879E-1,-0E0,-5.295285E-1,-0E0,-5.670881E-1,-0E0,-5.966799E-1,-0E0],"categories":[],"categories_nodes":[],"categories_segments":[],"categories_sizes":[],"default_left":[1,1,1,1,1,1,0,1,1,1,1],"id":33,"left_children":[1,-1,5,-1,-1,-1,-1,-1,-1,-1,-1],"loss_changes":[2.8955563E1,3.8780441E0,5.0803814E0,0E0,0E0,1.1574802E0,0E0,6.83054E-1,0E0,0E0,0E0],"parents":[2147483647,0,0,1,1,2,2,5,5,7,7],"right_children":[2,-1,6,-1,-1,-1,-1,-1,-1,-1,-1],"split_conditions":[3.5E0,3.176994E-3,5E-1,4.932375E-3,-0E0,-4.8747524E-3,-0E0,-5.2205203E-3,-0E0,-5.4929373E-3,-0E0],"split_indices":[27,25,33,2147483647,2147483647,30,0,2147483647,2147483647,2147483647,2147483647],"split_type":[0,0,0,0,0,0,0,0,0,0,0],"sum_hessian":[1.8047365E2,9.392668E1,8.654696E1,5.1273262E1,4.2653423E1,7.8556854E1,7.9901047E0,7.183115E1,6.7257085E0,6.660254E1,5.2286115E0],"tree_param":{"num_deleted":"6","num_feature":"38","num_nodes":"11","size_leaf_vector":"0"}},{"base_weights":[-0E0,4.646365E-1,-2.628713E-1,-0E0,5.3982353E-1,-3.86985E-1,-0E0,-0E0,5.6767154E-1,-4.313742E-1,-0E0,-4.8102725E-1,-0E0,-5.3599834E-1,-0E0,-5.649807E-1,-0E0,-0E0,-5.8313173E-1],"categories":[],"categories_nodes":[],"categories_segments":[],"categories_sizes":[],"default_left":[1,1,1,1,1,1,0,1,1,1,1,1,1,1,1,1,1,1,1],"id":34,"left_children":[1,-1,5,-1,-1,-1,-1,-1,-1,-1,-1,-1,-1,-1,-1,-1,-1,-1,-1],"loss_changes":[2.2085594E1,2.8196106E0,6.666896E0,0E0,2.4120712E-1,2.6364117E0,0E0,0E0,0E0,2.7652588E0,0E0,3.2514687E0,0E0,1.1025429E0,0E0,1.6909409E-1,0E0,0E0,0E0],"parents":[2147483647,0,0,1,1,2,2,4,4,5,5,9,9,11,11,13,13,15,15],"right_children":[2,-1,6,-1,-1,-1,-1,-1,-1,-1,-1,-1,-1,-1,-1,-1,-1,-1,-1],"split_conditions":[-1.15E1,4.2773676E-3,7.15E1,-0E0,4.969527E-3,-3.5625205E-3,-0E0,-0E0,5.225891E-3,-3.97116E-3,-0E0,-4.4282577E-3,-0E0,-4.934313E-3,-0E0,-5.2011195E-3,-0E0,-0E0,-5.368215E-3],"split_indices":[25,37,37,2147483647,2147483647,36,0,2147483647,2147483647,2147483647,2147483647,2147483647,2147483647,2147483647,2147483647,2147483647,2147483647,2147483647,2147483647],"split_type":[0,0,0,0,0,0,0,0,0,0,0,0,0,0,0,0,0,0,0],"sum_hessian":[1.7894359E2,6.222637E1,1.1671722E2,6.984239E0,5.5242134E1,9.7265625E1,1.9451597E1,4.735462E0,5.0506668E1,9.204413E1,5.221496E0,8.5570625E1,6.4734974E0,7.983586E1,5.7347684E0,7.510348E1,4.732384E0,4.2315474E0,7.0871925E1],"tree_param":{"num_deleted":"14","num_feature":"38","num_nodes":"19","size_leaf_vector":"0"}},{"base_weights":[-0E0,-3.7485394E-1,3.320858E-1,-4.4693807E-1,-0E0,-0E0,4.564527E-1,-5.042348E-1,-0E0,5.3737986E-1,-0E0,-5.396293E-1,-0E0],"categories":[],"categories_nodes":[],"categories_segments":[],"categories_sizes":[],"default_left":[1,1,1,1,1,0,1,1,1,1,1,1,1],"id":35,"left_children":[1,-1,5,-1,-1,-1,-1,-1,-1,-1,-1,-1,-1],"loss_changes":[2.1952637E1,3.2676134E0,7.495307E0,2.9644766E0,0E0,0E0,2.5169106E0,1.3527718E0,0E0,0E0,0E0,0E0,0E0],"parents":[2147483647,0,0,1,1,2,2,3,3,6,6,7,7],"right_children":[2,-1,6,-1,-1,-1,-1,-1,-1,-1,-1,-1,-1],"split_conditions":[-5E-1,-3.4508437E-3,-2.975E2,-4.1144383E-3,-0E0,-0E0,4.2020287E-3,-4.6419026E-3,-0E0,4.947031E-3,-0E0,-4.9677384E-3,-0E0],"split_indices":[32,37,37,2147483647,2147483647,0,27,2147483647,2147483647,2147483647,2147483647,2147483647,2147483647],"split_type":[0,0,0,0,0,0,0,0,0,0,0,0,0],"sum_hessian":[1.7243881E2,8.0036354E1,9.240246E1,7.204908E1,7.9872727E0,8.486808E0,8.391565E1,6.782386E1,4.225223E0,6.868675E1,1.5228896E1,6.3602905E1,4.220952E0],"tree_param":{"num_deleted":"8","num_feature":"38","num_nodes":"13","size_leaf_vector":"0"}},{"base_weights":[-0E0,2.8195497E-1,-5.076771E-1,-0E0,4.479482E-1,-5.51355E-1,-0E0,-0E0,5.245663E-1,-5.82858E-1,-0E0,-6.0672694E-1,-0E0],"categories":[],"categories_nodes":[],"categories_segments":[],"categories_sizes":[],"default_left":[1,1,1,0,1,1,1,1,1,1,1,1,1],"id":36,"left_children":[1,3,-1,-1,-1,-1,-1,-1,-1,-1,-1,-1,-1],"loss_changes":[2.8730867E1,7.5723143E0,2.1700401E0,0E0,3.1196833E0,1.2267113E0,0E0,0E0,0E0,2.5304413E-1,0E0,0E0,0E0],"parents":[2147483647,0,0,1,1,2,2,4,4,5,5,9,9],"right_children":[2,4,-1,-1,-1,-1,-1,-1,-1,-1,-1,-1,-1],"split_conditions":[6.5E0,-5E-1,-4.673592E-3,-0E0,4.1237376E-3,-5.075684E-3,-0E0,-0E0,4.829071E-3,-5.3656953E-3,-0E0,-5.585429E-3,-0E0],"split_indices":[27,32,36,0,18,2147483647,2147483647,2147483647,2147483647,2147483647,2147483647,2147483647,2147483647],"split_type":[0,0,0,0,0,0,0,0,0,0,0,0,0],"sum_hessian":[1.7887566E2,1.0135781E2,7.7517845E1,2.4705763E1,7.665205E1,7.254789E1,4.9699564E0,9.976205E0,6.667584E1,6.831201E1,4.235884E0,6.357156E1,4.7404485E0],"tree_param":{"num_deleted":"8","num_feature":"38","num_nodes":"13","size_leaf_vector":"0"}},{"base_weights":[-0E0,2.4492517E-1,-5.2584594E-1,-0E0,3.4555876E-1,-6.1040854E-1,-0E0,-0E0,3.924297E-1,-0E0,-6.3181907E-1,-0E0,-6.649077E-1],"categories":[],"categories_nodes":[],"categories_segments":[],"categories_sizes":[],"default_left":[1,1,1,1,1,1,1,1,1,1,1,1,1],"id":37,"left_children":[1,-1,-1,-1,-1,-1,-1,-1,-1,-1,-1,-1,-1],"loss_changes":[3.111269E1,3.2115445E0,2.7242851E0,0E0,1.281662E0,4.5433044E-2,0E0,0E0,0E0,0E0,9.83202E-1,0E0,0E0],"parents":[2147483647,0,0,1,1,2,2,4,4,5,5,10,10],"right_children":[2,-1,-1,-1,-1,-1,-1,-1,-1,-1,-1,-1,-1],"split_conditions":[0E0,2.254741E-3,-4.8408513E-3,-0E0,3.1811572E-3,-5.619321E-3,-0E0,-0E0,3.6126436E-3,-0E0,-5.816423E-3,-0E0,-6.121031E-3],"split_indices":[27,32,32,2147483647,2147483647,2147483647,2147483647,2147483647,2147483647,2147483647,2147483647,2147483647,2147483647],"split_type":[0,0,0,0,0,0,0,0,0,0,0,0,0],"sum_hessian":[1.7784505E2,8.662419E1,9.122085E1,1.7235922E1,6.938827E1,7.447804E1,1.6742807E1,7.7250605E0,6.1663208E1,4.9854474E0,6.949259E1,4.7201724E0,6.477242E1],"tree_param":{"num_deleted":"10","num_feature":"38","num_nodes":"13","size_leaf_vector":"0"}},{"base_weights":[-0E0,-4.369616E-1,4.158708E-1,-0E0,-5.353171E-1,-0E0,5.241166E-1,-5.767812E-1,-0E0],"categories":[],"categories_nodes":[],"categories_segments":[],"categories_sizes":[],"default_left":[1,1,1,0,1,0,0,1,1],"id":38,"left_children":[1,3,5,-1,-1,-1,-1,-1,-1],"loss_changes":[3.4664814E1,6.033022E0,5.0347605E0,0E0,2.8982372E0,0E0,0E0,0E0,0E0],"parents":[2147483647,0,0,1,1,2,2,4,4],"right_children":[2,4,6,-1,-1,-1,-1,-1,-1],"split_conditions":[5E-1,-1.5E0,-9.535679E-2,-0E0,-4.9280417E-3,-0E0,4.8249313E-3,-5.309753E-3,-0E0],"split_indices":[32,23,1,0,4,0,0,2147483647,2147483647],"split_type":[0,0,0,0,0,0,0,0,0],"sum_hessian":[1.8501532E2,1.0662947E2,7.838586E1,1.5216902E1,9.141257E1,1.14683695E1,6.691749E1,8.716859E1,4.2439823E0],"tree_param":{"num_deleted":"2","num_feature":"38","num_nodes":"9","size_leaf_vector":"0"}},{"base_weights":[-0E0,2.7814692E-1,-4.7819862E-1,-0E0,3.9521852E-1,-5.250572E-1,-0E0,-0E0,4.456915E-1,-5.64437E-1,-0E0,4.9090657E-1,-0E0,5.155112E-1,-0E0],"categories":[],"categories_nodes":[],"categories_segments":[],"categories_sizes":[],"default_left":[1,1,1,0,1,1,1,1,1,1,1,1,1,1,1],"id":39,"left_children":[1,3,-1,-1,-1,-1,-1,-1,-1,-1,-1,-1,-1,-1,-1],"loss_changes":[2.6902618E1,5.3273306E0,2.0304642E0,0E0,2.1743107E0,1.4666977E0,0E0,0E0,2.3511543E0,0E0,0E0,6.7710495E-1,0E0,0E0,0E0],"parents":[2147483647,0,0,1,1,2,2,4,4,5,5,8,8,11,11],"right_children":[2,4,-1,-1,-1,-1,-1,-1,-1,-1,-1,-1,-1,-1,-1],"split_conditions":[7.5E0,-5E-1,-4.402218E-3,-0E0,3.6383169E-3,-4.8335902E-3,-0E0,-0E0,4.1029626E-3,-5.196114E-3,-0E0,4.519205E-3,-0E0,4.7457116E-3,-0E0],"split_indices":[27,33,33,0,24,2147483647,2147483647,2147483647,2147483647,2147483647,2147483647,2147483647,2147483647,2147483647,2147483647],"split_type":[0,0,0,0,0,0,0,0,0,0,0,0,0,0,0],"sum_hessian":[1.84725E2,1.0553891E2,7.9186104E1,2.0196962E1,8.534195E1,7.269717E1,6.4889317E0,7.7285876E0,7.761336E1,6.723375E1,5.463416E0,7.336926E1,4.244094E0,6.888894E1,4.48033E0],"tree_param":{"num_deleted":"10","num_feature":"38","num_nodes":"15","size_leaf_vector":"0"}},{"base_weights":[-0E0,2.9236114E-1,-4.3193182E-1,-0E0,3.9152604E-1,-4.7948882E-1,-0E0,-0E0,4.5679182E-1,-0E0,-4.949315E-1,-0E0,-5.121791E-1],"categories":[],"categories_nodes":[],"categories_segments":[],"categories_sizes":[],"default_left":[1,1,1,1,1,1,1,1,1,1,1,1,1],"id":40,"left_children":[1,-1,-1,-1,-1,-1,-1,-1,-1,-1,-1,-1,-1],"loss_changes":[2.5095943E1,4.565176E0,2.8628025E0,0E0,2.1039286E0,2.3406029E-1,0E0,0E0,0E0,0E0,2.8321648E-1,0E0,0E0],"parents":[2147483647,0,0,1,1,2,2,4,4,5,5,10,10],"right_children":[2,-1,-1,-1,-1,-1,-1,-1,-1,-1,-1,-1,-1],"split_conditions":[3.5E0,2.6914286E-3,-3.9762934E-3,-0E0,3.6043245E-3,-4.4140955E-3,-0E0,-0E0,4.2051505E-3,-0E0,-4.556258E-3,-0E0,-4.7150366E-3],"split_indices":[27,33,36,2147483647,2147483647,2147483647,2147483647,2147483647,2147483647,2147483647,2147483647,2147483647,2147483647],"split_type":[0,0,0,0,0,0,0,0,0,0,0,0,0],"sum_hessian":[1.8490851E2,9.853889E1,8.636962E1,1.4723747E1,8.381514E1,8.215046E1,4.2191625E0,1.2702628E1,7.111252E1,4.217375E0,7.793308E1,4.2170258E0,7.371606E1],"tree_param":{"num_deleted":"10","num_feature":"38","num_nodes":"13","size_leaf_vector":"0"}},{"base_weights":[-0E0,-4.600625E-1,3.159853E-1,-5.3801775E-1,-0E0,-0E0,4.2166716E-1,-5.761749E-1,-0E0,4.53408E-1,-0E0,-6.1055577E-1,-0E0,-0E0,4.8703307E-1,-6.2732494E-1,-0E0],"categories":[],"categories_nodes":[],"categories_segments":[],"categories_sizes":[],"default_left":[1,1,1,1,1,0,1,1,1,1,1,1,1,1,1,1,1],"id":41,"left_children":[1,-1,5,-1,-1,-1,-1,-1,-1,-1,-1,-1,-1,-1,-1,-1,-1],"loss_changes":[3.113116E1,4.671137E0,5.3812847E0,2.6549225E0,0E0,0E0,2.7382946E-1,2.0469894E0,0E0,6.554966E-1,0E0,4.024887E-2,0E0,0E0,0E0,0E0,0E0],"parents":[2147483647,0,0,1,1,2,2,3,3,6,6,7,7,9,9,11,11],"right_children":[2,-1,6,-1,-1,-1,-1,-1,-1,-1,-1,-1,-1,-1,-1,-1,-1],"split_conditions":[5E-1,-4.2352597E-3,-1.369172E-3,-4.952903E-3,-0E0,-0E0,3.8817986E-3,-5.3041717E-3,-0E0,4.1739997E-3,-0E0,-5.620676E-3,-0E0,-0E0,4.4835466E-3,-5.7750503E-3,-0E0],"split_indices":[32,29,29,2147483647,2147483647,0,25,2147483647,2147483647,2147483647,2147483647,2147483647,2147483647,2147483647,2147483647,2147483647,2147483647],"split_type":[0,0,0,0,0,0,0,0,0,0,0,0,0,0,0,0,0],"sum_hessian":[1.8635541E2,1.0627966E2,8.007575E1,9.3296616E1,1.2983045E1,5.7453985E0,7.433035E1,8.908243E1,4.2141867E0,6.5341606E1,8.988744E0,8.459827E1,4.4841614E0,6.221843E0,5.9119766E1,8.012962E1,4.4686418E0],"tree_param":{"num_deleted":"12","num_feature":"38","num_nodes":"17","size_leaf_vector":"0"}},{"base_weights":[-0E0,-3.705777E-1,3.8769275E-1,-4.8311952E-1,-0E0,-0E0,4.6766192E-1,-5.575299E-1,-0E0],"categories":[],"categories_nodes":[],"categories_segments":[],"categories_sizes":[],"default_left":[1,1,1,1,0,1,1,1,1],"id":42,"left_children":[1,3,-1,-1,-1,-1,-1,-1,-1],"loss_changes":[2.7565449E1,7.024062E0,4.193407E0,1.6111298E0,0E0,0E0,0E0,0E0,0E0],"parents":[2147483647,0,0,1,1,2,2,3,3],"right_children":[2,4,-1,-1,-1,-1,-1,-1,-1],"split_conditions":[5E-1,1.5E1,3.5690358E-3,-4.447519E-3,-0E0,-0E0,4.305219E-3,-5.132529E-3,-0E0],"split_indices":[32,37,37,32,0,2147483647,2147483647,2147483647,2147483647],"split_type":[0,0,0,0,0,0,0,0,0],"sum_hessian":[1.8878227E2,1.0798819E2,8.0794075E1,9.27838E1,1.5204391E1,6.7387624E0,7.405531E1,7.4340416E1,1.8443384E1],"tree_param":{"num_deleted":"4","num_feature":"38","num_nodes":"9","size_leaf_vector":"0"}},{"base_weights":[-0E0,-3.7193516E-1,4.2121285E-1,-4.5917824E-1,-0E0,-0E0,5.182667E-1,-5.0339735E-1,-0E0,5.8217263E-1,-0E0,-5.570645E-1,-0E0,-5.952363E-1,-0E0,-6.315574E-1,-0E0],"categories":[],"categories_nodes":[],"categories_segments":[],"categories_sizes":[],"default_left":[1,1,1,1,0,0,1,1,1,1,1,1,1,1,1,1,1],"id":43,"left_children":[1,3,5,-1,-1,-1,-1,-1,-1,-1,-1,-1,-1,-1,-1,-1,-1],"loss_changes":[2.9305294E1,5.0497713E0,5.649682E0,2.9886131E0,0E0,0E0,9.955025E-1,2.8610077E0,0E0,0E0,0E0,2.0105534E0,0E0,9.3912125E-1,0E0,0E0,0E0],"parents":[2147483647,0,0,1,1,2,2,3,3,6,6,7,7,11,11,13,13],"right_children":[2,4,6,-1,-1,-1,-1,-1,-1,-1,-1,-1,-1,-1,-1,-1,-1],"split_conditions":[5E-1,6.95E1,-2.76E2,-4.2271195E-3,-0E0,-0E0,4.771078E-3,-4.634193E-3,-0E0,5.3593856E-3,-0E0,-5.128244E-3,-0E0,-5.479648E-3,-0E0,-5.814014E-3,-0E0],"split_indices":[32,37,37,28,0,0,3,2147483647,2147483647,2147483647,2147483647,2147483647,2147483647,2147483647,2147483647,2147483647,2147483647],"split_type":[0,0,0,0,0,0,0,0,0,0,0,0,0,0,0,0,0],"sum_hessian":[1.8502719E2,1.0674311E2,7.828409E1,9.327702E1,1.3466089E1,6.239326E0,7.204476E1,8.905762E1,4.2194023E0,5.960624E1,1.2438524E1,8.156685E1,7.490769E0,7.6859886E1,4.7069626E0,7.039823E1,6.461658E0],"tree_param":{"num_deleted":"10","num_feature":"38","num_nodes":"17","size_leaf_vector":"0"}},{"base_weights":[-0E0,2.8403464E-1,-4.3538067E-1,3.2360613E-1,-0E0,-0E0,-4.61098E-1,3.555703E-1,-0E0,-0E0,3.7898E-1,4.010676E-1,-0E0,-0E0,4.204331E-1],"categories":[],"categories_nodes":[],"categories_segments":[],"categories_sizes":[],"default_left":[1,1,1,1,1,1,1,1,1,1,1,1,1,1,1],"id":44,"left_children":[1,-1,-1,-1,-1,-1,-1,-1,-1,-1,-1,-1,-1,-1,-1],"loss_changes":[2.3443428E1,2.003849E0,1.6679668E-1,1.4882555E0,0E0,0E0,0E0,9.845915E-1,0E0,0E0,4.803295E-1,5.098839E-1,0E0,0E0,0E0],"parents":[2147483647,0,0,1,1,2,2,3,3,7,7,10,10,11,11],"right_children":[2,-1,-1,-1,-1,-1,-1,-1,-1,-1,-1,-1,-1,-1,-1],"split_conditions":[7.5E0,2.6147764E-3,-4.008043E-3,2.979065E-3,-0E0,-0E0,-4.2447923E-3,3.2733218E-3,-0E0,-0E0,3.4888277E-3,3.6921627E-3,-0E0,-0E0,3.870438E-3],"split_indices":[27,26,3,2147483647,2147483647,2147483647,2147483647,2147483647,2147483647,2147483647,2147483647,2147483647,2147483647,2147483647,2147483647],"split_type":[0,0,0,0,0,0,0,0,0,0,0,0,0,0,0],"sum_hessian":[1.7802075E2,9.972002E1,7.8300735E1,9.54857E1,4.2343144E0,7.92935E0,7.037138E1,9.050792E1,4.9777827E0,4.2271695E0,8.6280754E1,7.980482E1,6.475936E0,4.483083E0,7.532173E1],"tree_param":{"num_deleted":"12","num_feature":"38","num_nodes":"15","size_leaf_vector":"0"}},{"base_weights":[-0E0,3.503857E-1,-3.0352327E-1,-0E0,4.0248412E-1,-0E0,-3.9125228E-1,-0E0,4.6697053E-1,-4.2422494E-1,-0E0,-0E0,-4.495255E-1,-0E0,-4.655009E-1],"categories":[],"categories_nodes":[],"categories_segments":[],"categories_sizes":[],"default_left":[1,1,1,1,1,0,1,1,1,1,1,1,1,1,1],"id":45,"left_children":[1,-1,5,-1,-1,-1,-1,-1,-1,-1,-1,-1,-1,-1,-1],"loss_changes":[1.9426897E1,1.9854689E0,5.858285E0,0E0,2.5249548E0,0E0,1.9229183E0,0E0,0E0,1.0036087E0,0E0,0E0,8.20961E-2,0E0,0E0],"parents":[2147483647,0,0,1,1,2,2,4,4,6,6,9,9,12,12],"right_children":[2,-1,6,-1,-1,-1,-1,-1,-1,-1,-1,-1,-1,-1,-1],"split_conditions":[-6.5E0,3.2255931E-3,-1.55E1,-0E0,3.7052028E-3,-0E0,-3.6018044E-3,-0E0,4.298854E-3,-3.9053452E-3,-0E0,-0E0,-4.138258E-3,-0E0,-4.285325E-3],"split_indices":[27,37,25,2147483647,2147483647,0,30,2147483647,2147483647,2147483647,2147483647,2147483647,2147483647,2147483647,2147483647],"split_type":[0,0,0,0,0,0,0,0,0,0,0,0,0,0,0],"sum_hessian":[1.817084E2,7.324738E1,1.0846102E2,5.977071E0,6.727032E1,5.7359347E0,1.0272508E2,6.2465296E0,6.1023785E1,9.775458E1,4.970509E0,5.9526887E0,9.180189E1,5.952881E0,8.584901E1],"tree_param":{"num_deleted":"10","num_feature":"38","num_nodes":"15","size_leaf_vector":"0"}},{"base_weights":[-0E0,-4.6896064E-1,3.295673E-1,-5.504865E-1,-0E0,-0E0,4.616176E-1,-5.91482E-1,-0E0,5.1467496E-1,-0E0,-6.3113993E-1,-0E0,-0E0,5.4473144E-1,5.708598E-1,-0E0],"categories":[],"categories_nodes":[],"categories_segments":[],"categories_sizes":[],"default_left":[1,1,1,1,1,0,1,1,1,1,1,1,1,1,1,1,1],"id":46,"left_children":[1,-1,5,-1,-1,-1,-1,-1,-1,-1,-1,-1,-1,-1,-1,-1,-1],"loss_changes":[2.9806767E1,4.1684437E0,7.3944216E0,1.9370041E0,0E0,0E0,2.4413013E0,1.6917267E0,0E0,1.0717583E0,0E0,0E0,0E0,0E0,1.0557747E-1,0E0,0E0],"parents":[2147483647,0,0,1,1,2,2,3,3,6,6,7,7,9,9,14,14],"right_children":[2,-1,6,-1,-1,-1,-1,-1,-1,-1,-1,-1,-1,-1,-1,-1,-1],"split_conditions":[-5E-1,-4.3171747E-3,-8.662883E-4,-5.0676884E-3,-0E0,-0E0,4.2495755E-3,-5.445086E-3,-0E0,4.7380133E-3,-0E0,-5.8101704E-3,-0E0,-0E0,5.0147083E-3,5.2552414E-3,-0E0],"split_indices":[32,37,29,2147483647,2147483647,0,3,2147483647,2147483647,2147483647,2147483647,2147483647,2147483647,2147483647,2147483647,2147483647,2147483647],"split_type":[0,0,0,0,0,0,0,0,0,0,0,0,0,0,0,0,0],"sum_hessian":[1.8164284E2,8.446429E1,9.717856E1,7.449017E1,9.974112E0,1.3953679E1,8.322488E1,6.978352E1,4.7066483E0,7.576408E1,7.460801E0,6.5285805E1,4.4977217E0,4.73909E0,7.102499E1,6.481205E1,6.2129374E0],"tree_param":{"num_deleted":"12","num_feature":"38","num_nodes":"17","size_leaf_vector":"0"}},{"base_weights":[-0E0,-4.2251825E-1,3.524929E-1,-5.074403E-1,-0E0,-0E0,4.8568112E-1,-5.3089285E-1,-0E0,5.3364706E-1,-0E0,-5.641875E-1,-0E0],"categories":[],"categories_nodes":[],"categories_segments":[],"categories_sizes":[],"default_left":[1,1,1,1,1,0,1,1,1,1,1,1,1],"id":47,"left_children":[1,-1,5,-1,-1,-1,-1,-1,-1,-1,-1,-1,-1],"loss_changes":[2.7632004E1,4.364852E0,7.683689E0,6.42128E-1,0E0,0E0,2.5635471E0,1.1816692E0,0E0,0E0,0E0,0E0,0E0],"parents":[2147483647,0,0,1,1,2,2,3,3,6,6,7,7],"right_children":[2,-1,6,-1,-1,-1,-1,-1,-1,-1,-1,-1,-1],"split_conditions":[-5E-1,-3.8896338E-3,-8.662883E-4,-4.6714125E-3,-0E0,-0E0,4.471101E-3,-4.8873127E-3,-0E0,4.9126674E-3,-0E0,-5.193818E-3,-0E0],"split_indices":[32,37,29,2147483647,2147483647,0,3,2147483647,2147483647,2147483647,2147483647,2147483647,2147483647],"split_type":[0,0,0,0,0,0,0,0,0,0,0,0,0],"sum_hessian":[1.8135564E2,8.246358E1,9.889206E1,7.349204E1,8.971534E0,1.5201499E1,8.369056E1,6.924285E1,4.2491946E0,7.797054E1,5.72002E0,6.478813E1,4.4547224E0],"tree_param":{"num_deleted":"8","num_feature":"38","num_nodes":"13","size_leaf_vector":"0"}},{"base_weights":[-0E0,2.8888735E-1,-4.5071748E-1,-0E0,4.5330104E-1,-5.15323E-1,-0E0,-0E0,5.063684E-1,-5.3450316E-1,-0E0],"categories":[],"categories_nodes":[],"categories_segments":[],"categories_sizes":[],"default_left":[1,1,1,0,1,1,1,1,1,1,1],"id":48,"left_children":[1,3,-1,-1,-1,-1,-1,-1,-1,-1,-1],"loss_changes":[2.651964E1,7.4113264E0,4.154192E0,0E0,2.5538301E0,5.1485825E-1,0E0,0E0,0E0,0E0,0E0],"parents":[2147483647,0,0,1,1,2,2,4,4,5,5],"right_children":[2,4,-1,-1,-1,-1,-1,-1,-1,-1,-1],"split_conditions":[3.5E0,-5E-1,-4.149231E-3,-0E0,4.173015E-3,-4.743979E-3,-0E0,-0E0,4.661544E-3,-4.9205483E-3,-0E0],"split_indices":[27,32,37,0,37,2147483647,2147483647,2147483647,2147483647,2147483647,2147483647],"split_type":[0,0,0,0,0,0,0,0,0,0,0],"sum_hessian":[1.8325795E2,9.439572E1,8.886223E1,2.1211054E1,7.318467E1,8.313745E1,5.724776E0,4.9844184E0,6.820025E1,7.893499E1,4.2024565E0],"tree_param":{"num_deleted":"6","num_feature":"38","num_nodes":"11","size_leaf_vector":"0"}},{"base_weights":[-0E0,-3.609607E-1,4.4912356E-1,-0E0,-4.6249267E-1,-0E0,5.724113E-1,-5.081428E-1,-0E0,-0E0,5.948553E-1,-5.392227E-1,-0E0],"categories":[],"categories_nodes":[],"categories_segments":[],"categories_sizes":[],"default_left":[1,1,1,0,1,0,1,1,1,1,1,1,1],"id":49,"left_children":[1,3,5,-1,-1,-1,-1,-1,-1,-1,-1,-1,-1],"loss_changes":[2.9180885E1,5.99782E0,6.360693E0,0E0,2.109274E0,0E0,8.607674E-2,1.3532848E0,0E0,0E0,0E0,0E0,0E0],"parents":[2147483647,0,0,1,1,2,2,4,4,6,6,7,7],"right_children":[2,4,6,-1,-1,-1,-1,-1,-1,-1,-1,-1,-1],"split_conditions":[5E-1,-1.65E1,-9.668255E-2,-0E0,-4.2576315E-3,-0E0,5.2695246E-3,-4.6778796E-3,-0E0,-0E0,5.4761404E-3,-4.963996E-3,-0E0],"split_indices":[32,25,1,0,37,0,37,2147483647,2147483647,2147483647,2147483647,2147483647,2147483647],"split_type":[0,0,0,0,0,0,0,0,0,0,0,0,0],"sum_hessian":[1.772463E2,1.0158276E2,7.566354E1,1.246955E1,8.911322E1,1.0461399E1,6.520214E1,8.163681E1,7.476405E0,4.7364483E0,6.046569E1,7.692113E1,4.7156835E0],"tree_param":{"num_deleted":"6","num_feature":"38","num_nodes":"13","size_leaf_vector":"0"}},{"base_weights":[-0E0,-4.7350544E-1,2.5067234E-1,-5.0668615E-1,-0E0,-0E0,3.892813E-1,-0E0,-5.3575057E-1,-0E0,4.4126824E-1,4.712274E-1,-0E0],"categories":[],"categories_nodes":[],"categories_segments":[],"categories_sizes":[],"default_left":[1,1,1,1,1,0,1,1,1,1,1,1,1],"id":50,"left_children":[1,-1,5,-1,-1,-1,-1,-1,-1,-1,-1,-1,-1],"loss_changes":[2.54197E1,1.6817188E0,5.188637E0,1.027771E0,0E0,0E0,2.4554777E0,0E0,0E0,0E0,1.024209E0,0E0,0E0],"parents":[2147483647,0,0,1,1,2,2,3,3,6,6,10,10],"right_children":[2,-1,6,-1,-1,-1,-1,-1,-1,-1,-1,-1,-1],"split_conditions":[-5E-1,-4.3590134E-3,-4.9863156E-2,-4.6644695E-3,-0E0,-0E0,3.58366E-3,-0E0,-4.932032E-3,-0E0,4.062243E-3,4.3380423E-3,-0E0],"split_indices":[32,18,18,2147483647,2147483647,0,29,2147483647,2147483647,2147483647,2147483647,2147483647,2147483647],"split_type":[0,0,0,0,0,0,0,0,0,0,0,0,0],"sum_hessian":[1.8166997E2,8.312242E1,9.854755E1,7.888207E1,4.2403507E0,2.4649467E1,7.389808E1,4.9630203E0,7.391905E1,4.232378E0,6.96657E1,6.544812E1,4.217584E0],"tree_param":{"num_deleted":"8","num_feature":"38","num_nodes":"13","size_leaf_vector":"0"}},{"base_weights":[-0E0,-4.0308338E-1,3.4441E-1,-4.9095345E-1,-0E0,-0E0,4.4783503E-1,-5.4223436E-1,-0E0,4.8607108E-1,-0E0,-5.783062E-1,-0E0],"categories":[],"categories_nodes":[],"categories_segments":[],"categories_sizes":[],"default_left":[1,1,1,1,0,0,1,1,1,1,1,1,1],"id":51,"left_children":[1,3,5,-1,-1,-1,-1,-1,-1,-1,-1,-1,-1],"loss_changes":[2.715371E1,6.039793E0,4.9401207E0,2.8248367E0,0E0,0E0,1.3726549E0,2.0503788E0,0E0,0E0,0E0,0E0,0E0],"parents":[2147483647,0,0,1,1,2,2,3,3,6,6,7,7],"right_children":[2,4,6,-1,-1,-1,-1,-1,-1,-1,-1,-1,-1],"split_conditions":[5E-1,9.2542585E-4,-1.34E2,-4.5196367E-3,-0E0,-0E0,4.122696E-3,-4.9917204E-3,-0E0,4.4746906E-3,-0E0,-5.323792E-3,-0E0],"split_indices":[32,29,37,37,0,0,3,2147483647,2147483647,2147483647,2147483647,2147483647,2147483647],"split_type":[0,0,0,0,0,0,0,0,0,0,0,0,0],"sum_hessian":[1.8505157E2,1.0544983E2,7.960174E1,9.5468315E1,9.981515E0,8.730139E0,7.0871605E1,8.7501564E1,7.966747E0,6.565895E1,5.2126503E0,8.280833E1,4.6932406E0],"tree_param":{"num_deleted":"6","num_feature":"38","num_nodes":"13","size_leaf_vector":"0"}},{"base_weights":[-0E0,-4.8307496E-1,3.8318473E-1,-6.067813E-1,-0E0,-0E0,5.278952E-1,-6.477068E-1,-0E0,-0E0,5.5584675E-1,5.900118E-1,-0E0],"categories":[],"categories_nodes":[],"categories_segments":[],"categories_sizes":[],"default_left":[1,1,1,1,0,0,1,1,1,1,1,1,1],"id":52,"left_children":[1,3,5,-1,-1,-1,-1,-1,-1,-1,-1,-1,-1],"loss_changes":[3.5838802E1,7.896719E0,1.0513553E1,2.1986923E0,0E0,0E0,1.5052128E0,0E0,0E0,0E0,1.1240616E0,0E0,0E0],"parents":[2147483647,0,0,1,1,2,2,3,3,6,6,10,10],"right_children":[2,4,6,-1,-1,-1,-1,-1,-1,-1,-1,-1,-1],"split_conditions":[-5E-1,6.95E1,-2.985E2,-5.585929E-3,-0E0,-0E0,4.8597166E-3,-5.9626824E-3,-0E0,-0E0,5.117034E-3,5.4315515E-3,-0E0],"split_indices":[32,37,37,36,0,0,24,2147483647,2147483647,2147483647,2147483647,2147483647,2147483647],"split_type":[0,0,0,0,0,0,0,0,0,0,0,0,0],"sum_hessian":[1.8821178E2,8.576425E1,1.0244752E2,7.505323E1,1.071102E1,1.1715166E1,9.073235E1,7.085748E1,4.1957507E0,4.225734E0,8.6506615E1,7.977584E1,6.7307777E0],"tree_param":{"num_deleted":"6","num_feature":"38","num_nodes":"13","size_leaf_vector":"0"}},{"base_weights":[-0E0,-4.0949935E-1,2.1996279E-1,-4.7576386E-1,-0E0,-0E0,3.8772798E-1,-5.406017E-1,-0E0,-0E0,4.1933474E-1,4.3341795E-1,-0E0],"categories":[],"categories_nodes":[],"categories_segments":[],"categories_sizes":[],"default_left":[1,1,1,1,1,0,1,1,1,1,1,1,1],"id":53,"left_children":[1,-1,5,-1,-1,-1,-1,-1,-1,-1,-1,-1,-1],"loss_changes":[1.939689E1,3.1592932E0,8.015509E0,3.7731113E0,0E0,0E0,1.2251492E0,0E0,0E0,0E0,7.9481125E-2,0E0,0E0],"parents":[2147483647,0,0,1,1,2,2,3,3,6,6,10,10],"right_children":[2,-1,6,-1,-1,-1,-1,-1,-1,-1,-1,-1,-1],"split_conditions":[-5E-1,-3.7697838E-3,-8.7625685E-4,-4.379804E-3,-0E0,-0E0,3.5693601E-3,-4.9766903E-3,-0E0,-0E0,3.8603267E-3,3.9899745E-3,-0E0],"split_indices":[32,37,29,2147483647,2147483647,0,37,2147483647,2147483647,2147483647,2147483647,2147483647,2147483647],"split_type":[0,0,0,0,0,0,0,0,0,0,0,0,0],"sum_hessian":[1.8344037E2,8.4461525E1,9.897884E1,7.599656E1,8.464967E0,1.5200246E1,8.3778595E1,7.130682E1,4.689736E0,5.4845767E0,7.829402E1,7.358016E1,4.7138577E0],"tree_param":{"num_deleted":"8","num_feature":"38","num_nodes":"13","size_leaf_vector":"0"}},{"base_weights":[-0E0,-3.62922E-1,2.9804993E-1,-0E0,-3.965588E-1,3.7993276E-1,-0E0,-4.3607196E-1,-0E0,4.7584885E-1,-0E0,-0E0,5.7350004E-1],"categories":[],"categories_nodes":[],"categories_segments":[],"categories_sizes":[],"default_left":[1,1,1,1,1,1,0,1,1,1,0,0,0],"id":54,"left_children":[1,-1,5,-1,-1,9,-1,-1,-1,11,-1,-1,-1],"loss_changes":[1.9901379E1,1.2080593E0,3.9407492E0,0E0,1.1578856E0,3.3975239E0,0E0,0E0,0E0,4.884556E0,0E0,0E0,0E0],"parents":[2147483647,0,0,1,1,2,2,4,4,5,5,9,9],"right_children":[2,-1,6,-1,-1,10,-1,-1,-1,12,-1,-1,-1],"split_conditions":[-4.7814153E-4,-3.3410005E-3,5.021945E0,-0E0,-3.650655E-3,5E-1,-0E0,-4.014407E-3,-0E0,-1.5E0,-0E0,-0E0,5.279547E-3],"split_indices":[29,14,17,2147483647,2147483647,23,0,2147483647,2147483647,20,0,0,0],"split_type":[0,0,0,0,0,0,0,0,0,0,0,0,0],"sum_hessian":[1.8018562E2,8.024978E1,9.993585E1,5.6887546E0,7.456102E1,8.801033E1,1.1925524E1,6.739406E1,7.1669626E0,7.0364655E1,1.7645674E1,7.712242E0,6.2652412E1],"tree_param":{"num_deleted":"4","num_feature":"38","num_nodes":"13","size_leaf_vector":"0"}},{"base_weights":[-0E0,2.755238E-1,-3.7006375E-1,-0E0,4.3541723E-1,-4.0979898E-1,-0E0,-0E0,4.712162E-1,-0E0,-4.551867E-1,-4.719418E-1,-0E0],"categories":[],"categories_nodes":[],"categories_segments":[],"categories_sizes":[],"default_left":[1,1,1,0,1,1,1,1,1,1,1,1,1],"id":55,"left_children":[1,3,-1,-1,-1,-1,-1,-1,-1,-1,-1,-1,-1],"loss_changes":[1.9086016E1,7.078068E0,1.3768158E0,0E0,1.608633E0,1.5212517E0,0E0,0E0,0E0,0E0,7.391262E-2,0E0,0E0],"parents":[2147483647,0,0,1,1,2,2,4,4,5,5,10,10],"right_children":[2,4,-1,-1,-1,-1,-1,-1,-1,-1,-1,-1,-1],"split_conditions":[7.5E0,-5E-1,-3.406746E-3,-0E0,4.0083798E-3,-3.772542E-3,-0E0,-0E0,4.337939E-3,-0E0,-4.190374E-3,-4.344619E-3,-0E0],"split_indices":[27,32,33,0,37,2147483647,2147483647,2147483647,2147483647,2147483647,2147483647,2147483647,2147483647],"split_type":[0,0,0,0,0,0,0,0,0,0,0,0,0],"sum_hessian":[1.811493E2,1.009255E2,8.0223816E1,2.4413567E1,7.651193E1,7.323942E1,6.9843936E0,4.2399726E0,7.227196E1,6.925319E0,6.63141E1,6.1877388E1,4.4367113E0],"tree_param":{"num_deleted":"8","num_feature":"38","num_nodes":"13","size_leaf_vector":"0"}},{"base_weights":[-0E0,-4.025557E-1,3.6568382E-1,-4.8582625E-1,-0E0,-0E0,4.8867503E-1,-5.182626E-1,-0E0,-0E0,5.3554595E-1,-0E0,5.6344837E-1,6.1488026E-1,-0E0],"categories":[],"categories_nodes":[],"categories_segments":[],"categories_sizes":[],"default_left":[1,1,1,1,1,0,1,1,1,1,1,1,1,1,1],"id":56,"left_children":[1,-1,5,-1,-1,-1,-1,-1,-1,-1,-1,-1,-1,-1,-1],"loss_changes":[2.7546635E1,3.7099304E0,6.7632685E0,9.250145E-1,0E0,0E0,2.940956E0,0E0,0E0,0E0,1.0215626E0,0E0,1.5073776E0,0E0,0E0],"parents":[2147483647,0,0,1,1,2,2,3,3,6,6,10,10,12,12],"right_children":[2,-1,6,-1,-1,-1,-1,-1,-1,-1,-1,-1,-1,-1,-1],"split_conditions":[-5E-1,-3.7058617E-3,-9.6869424E-2,-4.472437E-3,-0E0,-0E0,4.498662E-3,-4.7710408E-3,-0E0,-0E0,4.930148E-3,-0E0,5.187013E-3,5.660487E-3,-0E0],"split_indices":[32,21,1,2147483647,2147483647,0,33,2147483647,2147483647,2147483647,2147483647,2147483647,2147483647,2147483647,2147483647],"split_type":[0,0,0,0,0,0,0,0,0,0,0,0,0,0,0],"sum_hessian":[1.8403828E2,8.2169556E1,1.0186872E2,7.148914E1,1.0680417E1,1.7408361E1,8.446036E1,6.601501E1,5.4741335E0,4.227332E0,8.0233025E1,4.7306256E0,7.5502396E1,6.705692E1,8.445477E0],"tree_param":{"num_deleted":"10","num_feature":"38","num_nodes":"15","size_leaf_vector":"0"}},{"base_weights":[-0E0,-4.7305936E-1,1.2868382E-1,-4.979109E-1,-0E0,-0E0,3.1781211E-1,-5.347387E-1,-0E0,-0E0,3.797066E-1,-0E0,4.3119887E-1],"categories":[],"categories_nodes":[],"categories_segments":[],"categories_sizes":[],"default_left":[1,1,1,1,1,1,1,1,1,1,1,1,1],"id":57,"left_children":[1,-1,-1,-1,-1,-1,-1,-1,-1,-1,-1,-1,-1],"loss_changes":[1.535414E1,2.6926613E-1,4.1190987E0,1.7838764E-1,0E0,0E0,1.9980607E0,0E0,0E0,0E0,6.411238E-1,0E0,0E0],"parents":[2147483647,0,0,1,1,2,2,3,3,6,6,10,10],"right_children":[2,-1,-1,-1,-1,-1,-1,-1,-1,-1,-1,-1,-1],"split_conditions":[-2.835E2,-4.3549067E-3,1.1846421E-3,-4.583686E-3,-0E0,-0E0,2.9257261E-3,-4.922717E-3,-0E0,-0E0,3.4955165E-3,-0E0,3.969546E-3],"split_indices":[37,29,29,2147483647,2147483647,2147483647,2147483647,2147483647,2147483647,2147483647,2147483647,2147483647,2147483647],"split_type":[0,0,0,0,0,0,0,0,0,0,0,0,0],"sum_hessian":[1.7508069E2,5.77165E1,1.1736419E2,5.2984676E1,4.731824E0,5.9061527E1,5.8302658E1,4.6288E1,6.6966777E0,4.2159815E0,5.4086678E1,9.160344E0,4.4926334E1],"tree_param":{"num_deleted":"10","num_feature":"38","num_nodes":"13","size_leaf_vector":"0"}},{"base_weights":[-0E0,2.1037713E-1,-4.0415555E-1,-0E0,3.5632613E-1,-4.3681842E-1,-0E0,-0E0,4.05408E-1,-0E0,-4.7238833E-1,-0E0,4.4477496E-1,-4.9958E-1,-0E0],"categories":[],"categories_nodes":[],"categories_segments":[],"categories_sizes":[],"default_left":[1,1,1,0,1,1,1,1,1,1,1,1,1,1,1],"id":58,"left_children":[1,3,-1,-1,-1,-1,-1,-1,-1,-1,-1,-1,-1,-1,-1],"loss_changes":[1.9040693E1,5.394332E0,1.6987238E0,0E0,2.1171503E0,9.8208237E-1,0E0,0E0,8.048229E-1,0E0,5.836582E-1,0E0,0E0,0E0,0E0],"parents":[2147483647,0,0,1,1,2,2,4,4,5,5,8,8,10,10],"right_children":[2,4,-1,-1,-1,-1,-1,-1,-1,-1,-1,-1,-1,-1,-1],"split_conditions":[2.5E0,-5E-1,-3.7205897E-3,-0E0,3.28028E-3,-4.0212786E-3,-0E0,-0E0,3.7321195E-3,-0E0,-4.3487293E-3,-0E0,4.0945252E-3,-4.5990516E-3,-0E0],"split_indices":[27,32,30,0,37,2147483647,2147483647,2147483647,2147483647,2147483647,2147483647,2147483647,2147483647,2147483647,2147483647],"split_type":[0,0,0,0,0,0,0,0,0,0,0,0,0,0,0],"sum_hessian":[1.8093199E2,9.187042E1,8.906156E1,1.870105E1,7.316937E1,8.484693E1,4.21463E0,4.2309756E0,6.89384E1,8.193778E0,7.665315E1,7.943171E0,6.0995228E1,7.065659E1,5.9965606E0],"tree_param":{"num_deleted":"10","num_feature":"38","num_nodes":"15","size_leaf_vector":"0"}},{"base_weights":[-0E0,-3.3401427E-1,3.5021034E-1,-4.0574384E-1,-0E0,-0E0,4.1033268E-1,-0E0,-4.5564085E-1,-0E0,4.8065475E-1,5.0306726E-1,-0E0],"categories":[],"categories_nodes":[],"categories_segments":[],"categories_sizes":[],"default_left":[1,1,1,1,1,1,1,1,1,1,1,1,1],"id":59,"left_children":[1,-1,-1,-1,-1,-1,-1,-1,-1,-1,-1,-1,-1],"loss_changes":[2.1222862E1,3.5478163E0,2.4943724E0,2.9633312E0,0E0,0E0,2.4222822E0,0E0,0E0,0E0,1.06554985E-1,0E0,0E0],"parents":[2147483647,0,0,1,1,2,2,3,3,6,6,10,10],"right_children":[2,-1,-1,-1,-1,-1,-1,-1,-1,-1,-1,-1,-1],"split_conditions":[1.1671269E-4,-3.0748805E-3,3.223979E-3,-3.7352112E-3,-0E0,-0E0,3.7774553E-3,-0E0,-4.194555E-3,-0E0,4.4248286E-3,4.6311547E-3,-0E0],"split_indices":[29,33,18,2147483647,2147483647,2147483647,2147483647,2147483647,2147483647,2147483647,2147483647,2147483647,2147483647],"split_type":[0,0,0,0,0,0,0,0,0,0,0,0,0],"sum_hessian":[1.7797046E2,9.805864E1,7.991182E1,8.733988E1,1.0718761E1,7.4461746E0,7.2465645E1,4.23403E0,8.310585E1,9.726292E0,6.273935E1,5.7515358E1,5.2239904E0],"tree_param":{"num_deleted":"10","num_feature":"38","num_nodes":"13","size_leaf_vector":"0"}},{"base_weights":[-0E0,2.7875465E-1,-3.432218E-1,-0E0,3.801058E-1,-4.1274697E-1,-0E0,-0E0,4.134272E-1,-0E0,-4.4998312E-1,-4.8273462E-1,-0E0],"categories":[],"categories_nodes":[],"categories_segments":[],"categories_sizes":[],"default_left":[1,1,1,1,1,1,1,1,1,1,1,1,1],"id":60,"left_children":[1,-1,-1,-1,-1,-1,-1,-1,-1,-1,-1,-1,-1],"loss_changes":[1.760941E1,3.490294E0,3.7254438E0,0E0,1.0096388E0,1.6760387E0,0E0,0E0,0E0,0E0,1.3160286E0,0E0,0E0],"parents":[2147483647,0,0,1,1,2,2,4,4,5,5,10,10],"right_children":[2,-1,-1,-1,-1,-1,-1,-1,-1,-1,-1,-1,-1],"split_conditions":[2.5E0,2.5661695E-3,-3.1596436E-3,-0E0,3.4991915E-3,-3.7996809E-3,-0E0,-0E0,3.805943E-3,-0E0,-4.1424707E-3,-4.4439756E-3,-0E0],"split_indices":[27,32,36,2147483647,2147483647,2147483647,2147483647,2147483647,2147483647,2147483647,2147483647,2147483647,2147483647],"split_type":[0,0,0,0,0,0,0,0,0,0,0,0,0],"sum_hessian":[1.7767043E2,9.2841415E1,8.4829E1,1.9703089E1,7.313833E1,7.9891106E1,4.937896E0,5.7258134E0,6.741251E1,4.724032E0,7.5167076E1,7.069119E1,4.47588E0],"tree_param":{"num_deleted":"10","num_feature":"38","num_nodes":"13","size_leaf_vector":"0"}},{"base_weights":[-0E0,2.3879194E-1,-4.7497618E-1,-0E0,3.8592118E-1,-5.413014E-1,-0E0,-0E0,4.3339804E-1,-5.803687E-1,-0E0,4.5897487E-1,-0E0,-6.12179E-1,-0E0],"categories":[],"categories_nodes":[],"categories_segments":[],"categories_sizes":[],"default_left":[1,1,1,0,1,1,1,1,1,1,1,1,1,1,1],"id":61,"left_children":[1,3,-1,-1,-1,-1,-1,-1,-1,-1,-1,-1,-1,-1,-1],"loss_changes":[2.4927967E1,5.6860485E0,3.7639275E0,0E0,2.0474396E0,1.2458782E0,0E0,0E0,4.3083E-1,8.835106E-1,0E0,0E0,0E0,0E0,0E0],"parents":[2147483647,0,0,1,1,2,2,4,4,5,5,8,8,9,9],"right_children":[2,4,-1,-1,-1,-1,-1,-1,-1,-1,-1,-1,-1,-1,-1],"split_conditions":[7.5E0,-5E-1,-4.372553E-3,-0E0,3.552727E-3,-4.9831322E-3,-0E0,-0E0,3.989791E-3,-5.3427787E-3,-0E0,4.225247E-3,-0E0,-5.635619E-3,-0E0],"split_indices":[27,32,33,0,37,2147483647,2147483647,2147483647,2147483647,2147483647,2147483647,2147483647,2147483647,2147483647,2147483647],"split_type":[0,0,0,0,0,0,0,0,0,0,0,0,0,0,0],"sum_hessian":[1.8153928E2,9.852411E1,8.301517E1,2.3894833E1,7.462928E1,7.629044E1,6.7247243E0,4.9809027E0,6.964838E1,6.979637E1,6.4940677E0,6.3924423E1,5.723951E0,6.4880486E1,4.915893E0],"tree_param":{"num_deleted":"10","num_feature":"38","num_nodes":"15","size_leaf_vector":"0"}},{"base_weights":[-0E0,-4.1099915E-1,3.1195867E-1,-5.223511E-1,-0E0,-0E0,4.6293807E-1,-5.404526E-1,-0E0,4.868803E-1,-0E0],"categories":[],"categories_nodes":[],"categories_segments":[],"categories_sizes":[],"default_left":[1,1,1,1,1,1,1,1,1,1,1],"id":62,"left_children":[1,-1,-1,-1,-1,-1,-1,-1,-1,-1,-1],"loss_changes":[2.4790754E1,4.0333567E0,4.2077503E0,1.0953522E-1,0E0,0E0,3.1311226E-1,0E0,0E0,0E0,0E0],"parents":[2147483647,0,0,1,1,2,2,3,3,6,6],"right_children":[2,-1,-1,-1,-1,-1,-1,-1,-1,-1,-1],"split_conditions":[-5E-1,-3.7835906E-3,2.8718403E-3,-4.8086783E-3,-0E0,-0E0,4.261732E-3,-4.975318E-3,-0E0,4.4821403E-3,-0E0],"split_indices":[32,21,29,2147483647,2147483647,2147483647,2147483647,2147483647,2147483647,2147483647,2147483647],"split_type":[0,0,0,0,0,0,0,0,0,0,0],"sum_hessian":[1.8515492E2,8.692453E1,9.82304E1,6.7813E1,1.9111526E1,3.5113808E1,6.311659E1,6.3585983E1,4.2270193E0,5.8185196E1,4.931394E0],"tree_param":{"num_deleted":"8","num_feature":"38","num_nodes":"11","size_leaf_vector":"0"}},{"base_weights":[-0E0,-4.038833E-1,2.7215505E-1,-4.6611738E-1,-0E0,-0E0,3.77653E-1,-0E0,-4.9886137E-1,-0E0,4.165227E-1,-0E0,4.4634175E-1,4.854718E-1,-0E0],"categories":[],"categories_nodes":[],"categories_segments":[],"categories_sizes":[],"default_left":[1,1,1,1,1,0,1,1,1,1,1,1,1,1,1],"id":63,"left_children":[1,-1,5,-1,-1,-1,-1,-1,-1,-1,-1,-1,-1,-1,-1],"loss_changes":[2.1169664E1,2.7105503E0,5.0882807E0,1.2939091E0,0E0,0E0,1.5589323E0,0E0,0E0,0E0,1.02602E0,0E0,5.111284E-1,0E0,0E0],"parents":[2147483647,0,0,1,1,2,2,3,3,6,6,10,10,12,12],"right_children":[2,-1,6,-1,-1,-1,-1,-1,-1,-1,-1,-1,-1,-1,-1],"split_conditions":[-5E-1,-3.7180835E-3,-2.975E2,-4.2910003E-3,-0E0,-0E0,3.4766116E-3,-0E0,-4.592436E-3,-0E0,3.8344397E-3,-0E0,4.108949E-3,4.469174E-3,-0E0],"split_indices":[32,37,37,2147483647,2147483647,0,18,2147483647,2147483647,2147483647,2147483647,2147483647,2147483647,2147483647,2147483647],"split_type":[0,0,0,0,0,0,0,0,0,0,0,0,0,0,0],"sum_hessian":[1.7947707E2,8.296186E1,9.651521E1,7.42503E1,8.711562E0,1.1703885E1,8.4811325E1,4.489274E0,6.9761024E1,6.470992E0,7.834034E1,5.2334013E0,7.310693E1,6.3647118E1,9.459817E0],"tree_param":{"num_deleted":"10","num_feature":"38","num_nodes":"15","size_leaf_vector":"0"}},{"base_weights":[-0E0,-3.6737555E-1,2.392078E-1,-0E0,-4.817347E-1,-0E0,2.956089E-1,-0E0,-5.16632E-1,3.3214402E-1,-0E0,-5.452957E-1,-0E0,-0E0,-5.688223E-1],"categories":[],"categories_nodes":[],"categories_segments":[],"categories_sizes":[],"default_left":[1,1,1,0,1,1,1,1,1,1,1,1,1,1,1],"id":64,"left_children":[1,3,-1,-1,-1,-1,-1,-1,-1,-1,-1,-1,-1,-1,-1],"loss_changes":[1.8977024E1,7.030078E0,1.6135721E0,0E0,2.02466E0,0E0,1.0928955E0,0E0,1.3543053E0,0E0,0E0,8.312416E-1,0E0,0E0,0E0],"parents":[2147483647,0,0,1,1,2,2,4,4,6,6,8,8,11,11],"right_children":[2,4,-1,-1,-1,-1,-1,-1,-1,-1,-1,-1,-1,-1,-1],"split_conditions":[5E-1,-1.25E1,2.2021078E-3,-0E0,-4.4347704E-3,-0E0,2.7213271E-3,-0E0,-4.7560297E-3,3.0576633E-3,-0E0,-5.0199027E-3,-0E0,-0E0,-5.236485E-3],"split_indices":[32,25,1,0,14,2147483647,2147483647,2147483647,2147483647,2147483647,2147483647,2147483647,2147483647,2147483647,2147483647],"split_type":[0,0,0,0,0,0,0,0,0,0,0,0,0,0,0],"sum_hessian":[1.830697E2,1.0426798E2,7.880172E1,1.4196328E1,9.0071655E1,9.446638E0,6.935508E1,4.44031E0,8.563135E1,6.441528E1,4.939798E0,8.120946E1,4.421889E0,4.176392E0,7.7033066E1],"tree_param":{"num_deleted":"10","num_feature":"38","num_nodes":"15","size_leaf_vector":"0"}},{"base_weights":[-0E0,-3.8737747E-1,1.8464383E-1,-0E0,-4.5739844E-1,-0E0,3.2249624E-1,-4.925606E-1,-0E0,-0E0,3.771773E-1,-5.160891E-1,-0E0,-0E0,4.2562935E-1,-5.41758E-1,-0E0,-0E0,4.5781356E-1],"categories":[],"categories_nodes":[],"categories_segments":[],"categories_sizes":[],"default_left":[1,1,1,1,1,0,1,1,1,1,1,1,1,1,1,1,1,1,1],"id":65,"left_children":[1,-1,5,-1,-1,-1,-1,-1,-1,-1,-1,-1,-1,-1,-1,-1,-1,-1,-1],"loss_changes":[1.7314812E1,3.631135E0,5.321499E0,0E0,1.6343193E0,0E0,2.6119556E0,7.468052E-1,0E0,0E0,1.9820356E0,4.1210175E-2,0E0,0E0,1.9028187E-1,0E0,0E0,0E0,0E0],"parents":[2147483647,0,0,1,1,2,2,4,4,6,6,7,7,10,10,11,11,14,14],"right_children":[2,-1,6,-1,-1,-1,-1,-1,-1,-1,-1,-1,-1,-1,-1,-1,-1,-1,-1],"split_conditions":[-5E-1,-3.5661333E-3,-9.668255E-2,-0E0,-4.210735E-3,-0E0,2.9688475E-3,-4.534432E-3,-0E0,-0E0,3.4722323E-3,-4.7510313E-3,-0E0,-0E0,3.918274E-3,-4.9873353E-3,-0E0,-0E0,4.2145564E-3],"split_indices":[32,25,1,2147483647,2147483647,0,33,2147483647,2147483647,2147483647,2147483647,2147483647,2147483647,2147483647,2147483647,2147483647,2147483647,2147483647,2147483647],"split_type":[0,0,0,0,0,0,0,0,0,0,0,0,0,0,0,0,0,0,0],"sum_hessian":[1.9295421E2,8.931284E1,1.03641365E2,8.477546E0,8.0835304E1,1.98836E1,8.375776E1,7.6159096E1,4.6762033E0,4.7183666E0,7.90394E1,7.199374E1,4.1653633E0,6.4718785E0,7.256752E1,6.528315E1,6.7105827E0,9.215617E0,6.3351902E1],"tree_param":{"num_deleted":"14","num_feature":"38","num_nodes":"19","size_leaf_vector":"0"}},{"base_weights":[-0E0,4.154271E-1,-4.1663584E-1,-0E0,5.6438965E-1,-5.0306904E-1,-0E0,-0E0,5.955181E-1,-5.3893894E-1,-0E0,-0E0,-5.6254065E-1,-5.866147E-1,-0E0],"categories":[],"categories_nodes":[],"categories_segments":[],"categories_sizes":[],"default_left":[1,1,1,0,1,1,1,1,1,1,1,1,1,1,1],"id":66,"left_children":[1,3,-1,-1,-1,-1,-1,-1,-1,-1,-1,-1,-1,-1,-1],"loss_changes":[3.079937E1,7.358095E0,4.630397E0,0E0,1.0298386E0,1.5604038E0,0E0,0E0,0E0,5.042267E-1,0E0,0E0,2.7433395E-2,0E0,0E0],"parents":[2147483647,0,0,1,1,2,2,4,4,5,5,9,9,12,12],"right_children":[2,4,-1,-1,-1,-1,-1,-1,-1,-1,-1,-1,-1,-1,-1],"split_conditions":[5.5E0,-5E-1,-3.8354811E-3,-0E0,5.1956787E-3,-4.631171E-3,-0E0,-0E0,5.482242E-3,-4.9613835E-3,-0E0,-0E0,-5.178657E-3,-5.400279E-3,-0E0],"split_indices":[25,32,33,0,29,2147483647,2147483647,2147483647,2147483647,2147483647,2147483647,2147483647,2147483647,2147483647,2147483647],"split_type":[0,0,0,0,0,0,0,0,0,0,0,0,0,0,0],"sum_hessian":[1.7387125E2,9.389786E1,7.997339E1,2.0867952E1,7.302991E1,7.250337E1,7.4700184E0,4.7408013E0,6.82891E1,6.8280876E1,4.2224936E0,4.184995E0,6.409588E1,5.8857273E1,5.238607E0],"tree_param":{"num_deleted":"10","num_feature":"38","num_nodes":"15","size_leaf_vector":"0"}},{"base_weights":[-0E0,-4.885338E-1,1.06440194E-1,-0E0,2.2032996E-1,-0E0,2.907829E-1,-0E0,3.411469E-1,3.889429E-1,-0E0,-0E0,4.366108E-1,4.7907877E-1,-0E0],"categories":[],"categories_nodes":[],"categories_segments":[],"categories_sizes":[],"default_left":[1,0,1,1,1,1,1,1,1,1,1,1,1,1,1],"id":67,"left_children":[1,-1,-1,-1,-1,-1,-1,-1,-1,-1,-1,-1,-1,-1,-1],"loss_changes":[1.4393192E1,0E0,3.5142927E0,0E0,2.1384206E0,0E0,1.8323393E0,0E0,1.6652765E0,1.2421007E0,0E0,0E0,1.1040583E0,0E0,0E0],"parents":[2147483647,0,0,2,2,4,4,6,6,8,8,9,9,12,12],"right_children":[2,-1,-1,-1,-1,-1,-1,-1,-1,-1,-1,-1,-1,-1,-1],"split_conditions":[-1.3828663E-3,-4.497362E-3,9.798709E-4,-0E0,2.0283214E-3,-0E0,2.6768995E-3,-0E0,3.1405422E-3,3.5805444E-3,-0E0,-0E0,4.019367E-3,4.4103204E-3,-0E0],"split_indices":[29,0,33,2147483647,2147483647,2147483647,2147483647,2147483647,2147483647,2147483647,2147483647,2147483647,2147483647,2147483647,2147483647],"split_type":[0,0,0,0,0,0,0,0,0,0,0,0,0,0,0],"sum_hessian":[1.7654913E2,5.2251213E1,1.2429792E2,2.4474646E1,9.982328E1,1.8097775E1,8.17255E1,7.167707E0,7.455779E1,6.789285E1,6.6649427E0,7.924397E0,5.9968456E1,5.4269596E1,5.698862E0],"tree_param":{"num_deleted":"12","num_feature":"38","num_nodes":"15","size_leaf_vector":"0"}},{"base_weights":[-0E0,-3.2340088E-1,2.8607234E-1,-0E0,-4.0750632E-1,-0E0,3.3801216E-1,-4.2902917E-1,-0E0,3.7116575E-1,-0E0,-4.4718313E-1,-0E0,3.9411703E-1,-0E0,-4.7150266E-1,-0E0],"categories":[],"categories_nodes":[],"categories_segments":[],"categories_sizes":[],"default_left":[1,1,1,1,1,1,1,1,1,1,1,1,1,1,1,1,1],"id":68,"left_children":[1,-1,-1,-1,-1,-1,-1,-1,-1,-1,-1,-1,-1,-1,-1,-1,-1],"loss_changes":[1.7210398E1,4.586055E0,2.0489554E0,0E0,6.900139E-1,0E0,1.1138134E0,4.3270016E-1,0E0,2.5613785E-1,0E0,2.2092628E-1,0E0,0E0,0E0,0E0,0E0],"parents":[2147483647,0,0,1,1,2,2,4,4,6,6,7,7,9,9,11,11],"right_children":[2,-1,-1,-1,-1,-1,-1,-1,-1,-1,-1,-1,-1,-1,-1,-1,-1],"split_conditions":[2.328026E-4,-2.9771754E-3,2.633535E-3,-0E0,-3.7514362E-3,-0E0,3.1116845E-3,-3.949572E-3,-0E0,3.416891E-3,-0E0,-4.1166944E-3,-0E0,3.6281766E-3,-0E0,-4.340576E-3,-0E0],"split_indices":[29,25,18,2147483647,2147483647,2147483647,2147483647,2147483647,2147483647,2147483647,2147483647,2147483647,2147483647,2147483647,2147483647,2147483647,2147483647],"split_type":[0,0,0,0,0,0,0,0,0,0,0,0,0,0,0,0,0],"sum_hessian":[1.7816747E2,9.8723656E1,7.94438E1,9.691008E0,8.9032646E1,5.1894026E0,7.42544E1,8.387128E1,5.161372E0,6.931536E1,4.9390397E0,7.91999E1,4.6713805E0,6.2893642E1,6.421719E0,7.2027504E1,7.1723957E0],"tree_param":{"num_deleted":"14","num_feature":"38","num_nodes":"17","size_leaf_vector":"0"}},{"base_weights":[-0E0,-2.3083636E-1,3.237517E-1,-3.2220784E-1,-0E0,3.9691427E-1,-0E0,-3.740246E-1,-0E0,4.885758E-1,-0E0,-4.106902E-1,-0E0,-4.6120995E-1,-0E0,-0E0,-4.868115E-1,-0E0,-5.253105E-1],"categories":[],"categories_nodes":[],"categories_segments":[],"categories_sizes":[],"default_left":[1,1,1,1,1,1,1,1,1,1,1,1,1,1,1,1,1,1,1],"id":69,"left_children":[1,-1,-1,-1,-1,-1,-1,-1,-1,-1,-1,-1,-1,-1,-1,-1,-1,-1,-1],"loss_changes":[1.3217488E1,4.201341E0,2.824717E0,2.8223877E0,0E0,1.5634451E0,0E0,1.7457247E0,0E0,0E0,0E0,1.7227182E0,0E0,8.204231E-1,0E0,0E0,1.1297493E0,0E0,0E0],"parents":[2147483647,0,0,1,1,2,2,3,3,5,5,7,7,11,11,13,13,16,16],"right_children":[2,-1,-1,-1,-1,-1,-1,-1,-1,-1,-1,-1,-1,-1,-1,-1,-1,-1,-1],"split_conditions":[6.3245464E-4,-2.1250416E-3,2.980405E-3,-2.9661926E-3,-0E0,3.6539277E-3,-0E0,-3.443209E-3,-0E0,4.4977483E-3,-0E0,-3.7807464E-3,-0E0,-4.2458232E-3,-0E0,-0E0,-4.4815065E-3,-0E0,-4.8359223E-3],"split_indices":[29,33,17,2147483647,2147483647,2147483647,2147483647,2147483647,2147483647,2147483647,2147483647,2147483647,2147483647,2147483647,2147483647,2147483647,2147483647,2147483647,2147483647],"split_type":[0,0,0,0,0,0,0,0,0,0,0,0,0,0,0,0,0,0,0],"sum_hessian":[1.7642082E2,1.0866363E2,6.775719E1,9.523937E1,1.3424258E1,6.232162E1,5.4355693E0,9.0323166E1,4.9162083E0,4.698091E1,1.5340712E1,8.4914505E1,5.4086604E0,7.500334E1,9.911164E0,4.4302764E0,7.057306E1,6.1617966E0,6.441126E1],"tree_param":{"num_deleted":"16","num_feature":"38","num_nodes":"19","size_leaf_vector":"0"}},{"base_weights":[-0E0,-3.3095175E-1,3.2152832E-1,-4.5830464E-1,-0E0,-0E0,4.027939E-1,-5.030946E-1,-0E0,-5.495017E-1,-0E0],"categories":[],"categories_nodes":[],"categories_segments":[],"categories_sizes":[],"default_left":[1,1,1,1,0,1,1,1,1,1,1],"id":70,"left_children":[1,3,-1,-1,-1,-1,-1,-1,-1,-1,-1],"loss_changes":[2.0132168E1,8.154777E0,2.6113863E0,2.6367798E0,0E0,0E0,0E0,2.654482E0,0E0,0E0,0E0],"parents":[2147483647,0,0,1,1,2,2,3,3,7,7],"right_children":[2,4,-1,-1,-1,-1,-1,-1,-1,-1,-1],"split_conditions":[5E-1,6.95E1,2.9599369E-3,-4.2190775E-3,-0E0,-0E0,3.7080548E-3,-4.6314066E-3,-0E0,-5.0586225E-3,-0E0],"split_indices":[32,37,18,29,0,2147483647,2147483647,2147483647,2147483647,2147483647,2147483647],"split_type":[0,0,0,0,0,0,0,0,0,0,0],"sum_hessian":[1.8422188E2,1.05573166E2,7.8648705E1,9.289178E1,1.2681391E1,1.3185109E1,6.54636E1,8.715564E1,5.736141E0,8.151433E1,5.6413107E0],"tree_param":{"num_deleted":"6","num_feature":"38","num_nodes":"11","size_leaf_vector":"0"}},{"base_weights":[-0E0,3.2721388E-1,-3.7102276E-1,-0E0,4.1450977E-1,-4.287223E-1,-0E0,-0E0,4.4908807E-1,-4.9016634E-1,-0E0,-0E0,4.8077255E-1,-5.2906376E-1,-0E0,-0E0,-5.4483426E-1],"categories":[],"categories_nodes":[],"categories_segments":[],"categories_sizes":[],"default_left":[1,1,1,1,1,1,1,1,1,1,1,1,1,1,1,1,1],"id":71,"left_children":[1,-1,-1,-1,-1,-1,-1,-1,-1,-1,-1,-1,-1,-1,-1,-1,-1],"loss_changes":[2.390799E1,3.4308214E0,3.6426163E0,0E0,5.35696E-1,2.62965E0,0E0,0E0,7.288475E-1,1.8480797E0,0E0,0E0,0E0,8.191681E-2,0E0,0E0,0E0],"parents":[2147483647,0,0,1,1,2,2,4,4,5,5,8,8,9,9,13,13],"right_children":[2,-1,-1,-1,-1,-1,-1,-1,-1,-1,-1,-1,-1,-1,-1,-1,-1],"split_conditions":[-3.5E0,3.0122774E-3,-3.4155746E-3,-0E0,3.815909E-3,-3.946747E-3,-0E0,-0E0,4.1342312E-3,-4.512391E-3,-0E0,-0E0,4.425913E-3,-4.8704743E-3,-0E0,-0E0,-5.015655E-3],"split_indices":[27,33,36,2147483647,2147483647,2147483647,2147483647,2147483647,2147483647,2147483647,2147483647,2147483647,2147483647,2147483647,2147483647,2147483647,2147483647],"split_type":[0,0,0,0,0,0,0,0,0,0,0,0,0,0,0,0,0],"sum_hessian":[1.8794734E2,8.068305E1,1.0726429E2,1.1212967E1,6.9470085E1,9.963633E1,7.6279554E0,7.934576E0,6.153551E1,8.66838E1,1.2952537E1,4.9525523E0,5.658296E1,8.071716E1,5.966634E0,4.4466033E0,7.627056E1],"tree_param":{"num_deleted":"14","num_feature":"38","num_nodes":"17","size_leaf_vector":"0"}},{"base_weights":[-0E0,-4.345282E-1,2.2461323E-1,-4.7871977E-1,-0E0,3.6588317E-1,-0E0,-0E0,-5.018439E-1,-0E0,4.2314965E-1,-0E0,-5.2522165E-1,4.4597825E-1,-0E0],"categories":[],"categories_nodes":[],"categories_segments":[],"categories_sizes":[],"default_left":[1,1,1,1,1,1,0,1,1,1,1,1,1,1,1],"id":72,"left_children":[1,-1,5,-1,-1,-1,-1,-1,-1,-1,-1,-1,-1,-1,-1],"loss_changes":[2.1377533E1,2.5192394E0,5.763051E0,6.869068E-1,0E0,1.8229456E0,0E0,0E0,7.50885E-2,0E0,3.578205E-1,0E0,0E0,0E0,0E0],"parents":[2147483647,0,0,1,1,2,2,3,3,5,5,8,8,10,10],"right_children":[2,-1,6,-1,-1,-1,-1,-1,-1,-1,-1,-1,-1,-1,-1],"split_conditions":[-5E-1,-4.0001953E-3,5.002651E0,-4.4070156E-3,-0E0,3.3682603E-3,-0E0,-0E0,-4.6198927E-3,-0E0,3.8954462E-3,-0E0,-4.835104E-3,4.1056024E-3,-0E0],"split_indices":[32,18,3,2147483647,2147483647,29,0,2147483647,2147483647,2147483647,2147483647,2147483647,2147483647,2147483647,2147483647],"split_type":[0,0,0,0,0,0,0,0,0,0,0,0,0,0,0],"sum_hessian":[1.8243604E2,8.44232E1,9.8012825E1,8.018648E1,4.2367287E0,7.870485E1,1.9307978E1,4.6772585E0,7.550922E1,1.0199728E1,6.850512E1,6.4791756E0,6.9030045E1,6.326514E1,5.239977E0],"tree_param":{"num_deleted":"10","num_feature":"38","num_nodes":"15","size_leaf_vector":"0"}},{"base_weights":[-0E0,2.907934E-1,-4.6802756E-1,-0E0,3.912651E-1,-5.1771927E-1,-0E0,-0E0,4.102401E-1,-5.4233176E-1,-0E0,-0E0,4.2403224E-1,-0E0,-5.660835E-1],"categories":[],"categories_nodes":[],"categories_segments":[],"categories_sizes":[],"default_left":[1,1,1,1,1,1,1,1,1,1,1,1,1,1,1],"id":73,"left_children":[1,-1,-1,-1,-1,-1,-1,-1,-1,-1,-1,-1,-1,-1,-1],"loss_changes":[2.7310478E1,3.2688131E0,1.8041916E0,0E0,3.1935215E-1,8.42638E-1,0E0,0E0,2.6161194E-2,8.6984634E-2,0E0,0E0,0E0,0E0,0E0],"parents":[2147483647,0,0,1,1,2,2,4,4,5,5,8,8,9,9],"right_children":[2,-1,-1,-1,-1,-1,-1,-1,-1,-1,-1,-1,-1,-1,-1],"split_conditions":[2.5E0,2.6769962E-3,-4.308585E-3,-0E0,3.6019222E-3,-4.7660386E-3,-0E0,-0E0,3.7766031E-3,-4.9926173E-3,-0E0,-0E0,3.9035713E-3,-0E0,-5.211272E-3],"split_indices":[27,32,33,2147483647,2147483647,2147483647,2147483647,2147483647,2147483647,2147483647,2147483647,2147483647,2147483647,2147483647,2147483647],"split_type":[0,0,0,0,0,0,0,0,0,0,0,0,0,0,0],"sum_hessian":[1.7788303E2,9.130481E1,8.657821E1,2.0439781E1,7.086503E1,7.7111115E1,9.467097E0,4.6922793E0,6.617275E1,7.295327E1,4.157841E0,4.2208714E0,6.1951878E1,5.891109E0,6.7062164E1],"tree_param":{"num_deleted":"12","num_feature":"38","num_nodes":"15","size_leaf_vector":"0"}},{"base_weights":[-0E0,2.665767E-1,-3.677035E-1,3.6025146E-1,-0E0,-4.2749962E-1,-0E0,-0E0,4.4828117E-1,-0E0,-4.6776804E-1,-0E0,4.777006E-1,5.1359665E-1,-0E0],"categories":[],"categories_nodes":[],"categories_segments":[],"categories_sizes":[],"default_left":[1,1,1,1,1,1,1,1,1,1,1,1,1,1,1],"id":74,"left_children":[1,-1,-1,-1,-1,-1,-1,-1,-1,-1,-1,-1,-1,-1,-1],"loss_changes":[1.8488253E1,3.5497298E0,2.6254587E0,3.5467052E0,0E0,1.105772E0,0E0,0E0,6.872053E-1,0E0,0E0,0E0,1.0845833E0,0E0,0E0],"parents":[2147483647,0,0,1,1,2,2,3,3,5,5,8,8,12,12],"right_children":[2,-1,-1,-1,-1,-1,-1,-1,-1,-1,-1,-1,-1,-1,-1],"split_conditions":[3.5E0,2.4540615E-3,-3.385018E-3,3.3164157E-3,-0E0,-3.935491E-3,-0E0,-0E0,4.126803E-3,-0E0,-4.306196E-3,-0E0,4.397633E-3,4.7280863E-3,-0E0],"split_indices":[27,3,32,2147483647,2147483647,2147483647,2147483647,2147483647,2147483647,2147483647,2147483647,2147483647,2147483647,2147483647,2147483647],"split_type":[0,0,0,0,0,0,0,0,0,0,0,0,0,0,0],"sum_hessian":[1.776242E2,9.279331E1,8.48309E1,7.7230736E1,1.55625725E1,7.658987E1,8.2410345E0,1.0433328E1,6.679741E1,7.904474E0,6.8685394E1,5.2083397E0,6.158907E1,5.711491E1,4.4741607E0],"tree_param":{"num_deleted":"12","num_feature":"38","num_nodes":"15","size_leaf_vector":"0"}},{"base_weights":[-0E0,-4.23868E-1,1.8833143E-1,-0E0,-4.7000703E-1,-0E0,2.7458772E-1,-4.9213204E-1,-0E0,-0E0,3.0604824E-1,-0E0,-5.142905E-1,-0E0,3.2826915E-1,3.5425317E-1,-0E0,3.718623E-1,-0E0],"categories":[],"categories_nodes":[],"categories_segments":[],"categories_sizes":[],"default_left":[1,1,1,1,1,1,1,1,1,1,1,1,1,1,1,1,1,1,1],"id":75,"left_children":[1,-1,-1,-1,-1,-1,-1,-1,-1,-1,-1,-1,-1,-1,-1,-1,-1,-1,-1],"loss_changes":[1.8401073E1,1.6312866E0,2.589827E0,0E0,5.213337E-1,0E0,1.05164E0,4.180622E-1,0E0,0E0,6.049566E-1,0E0,0E0,0E0,6.666236E-1,1.6619301E-1,0E0,0E0,0E0],"parents":[2147483647,0,0,1,1,2,2,4,4,6,6,7,7,10,10,14,14,15,15],"right_children":[2,-1,-1,-1,-1,-1,-1,-1,-1,-1,-1,-1,-1,-1,-1,-1,-1,-1,-1],"split_conditions":[-5E-1,-3.9020593E-3,1.7337482E-3,-0E0,-4.326808E-3,-0E0,2.5278095E-3,-4.5304867E-3,-0E0,-0E0,2.8174298E-3,-0E0,-4.7344742E-3,-0E0,3.021992E-3,3.2611967E-3,-0E0,3.4233031E-3,-0E0],"split_indices":[32,25,1,2147483647,2147483647,2147483647,2147483647,2147483647,2147483647,2147483647,2147483647,2147483647,2147483647,2147483647,2147483647,2147483647,2147483647,2147483647,2147483647],"split_type":[0,0,0,0,0,0,0,0,0,0,0,0,0,0,0,0,0,0,0],"sum_hessian":[1.7480086E2,8.154517E1,9.325568E1,8.223862E0,7.332131E1,1.6127712E1,7.712797E1,6.8848526E1,4.4727902E0,4.2155733E0,7.291239E1,4.3978195E0,6.445071E1,4.192212E0,6.872018E1,6.402998E1,4.6901946E0,5.9121014E1,4.908972E0],"tree_param":{"num_deleted":"16","num_feature":"38","num_nodes":"19","size_leaf_vector":"0"}},{"base_weights":[-0E0,2.0423864E-1,-4.0503448E-1,-0E0,3.0442062E-1,-4.7265217E-1,-0E0,-0E0,3.5889408E-1,-5.05475E-1,-0E0],"categories":[],"categories_nodes":[],"categories_segments":[],"categories_sizes":[],"default_left":[1,1,1,1,1,1,1,1,1,1,1],"id":76,"left_children":[1,-1,-1,-1,-1,-1,-1,-1,-1,-1,-1],"loss_changes":[1.6991169E1,3.1794157E0,2.124547E0,0E0,1.744597E0,2.8844166E-1,0E0,0E0,0E0,0E0,0E0],"parents":[2147483647,0,0,1,1,2,2,4,4,5,5],"right_children":[2,-1,-1,-1,-1,-1,-1,-1,-1,-1,-1],"split_conditions":[7.5E0,1.8801874E-3,-3.728681E-3,-0E0,2.8024463E-3,-4.351158E-3,-0E0,-0E0,3.30392E-3,-4.6533197E-3,-0E0],"split_indices":[27,32,32,2147483647,2147483647,2147483647,2147483647,2147483647,2147483647,2147483647,2147483647],"split_type":[0,0,0,0,0,0,0,0,0,0,0],"sum_hessian":[1.797002E2,1.0554705E2,7.415314E1,2.4861462E1,8.0685585E1,6.3417492E1,1.0735646E1,9.667078E0,7.101851E1,5.631926E1,7.0982323E0],"tree_param":{"num_deleted":"8","num_feature":"38","num_nodes":"11","size_leaf_vector":"0"}},{"base_weights":[-0E0,-3.8622364E-1,2.4244572E-1,-0E0,-4.379523E-1,-0E0,3.7233108E-1,-0E0,-4.720675E-1,-0E0,4.4105816E-1,-4.964341E-1,-0E0,-0E0,-5.144279E-1],"categories":[],"categories_nodes":[],"categories_segments":[],"categories_sizes":[],"default_left":[1,1,1,1,1,1,1,1,1,1,1,1,1,1,1],"id":77,"left_children":[1,-1,-1,-1,-1,-1,-1,-1,-1,-1,-1,-1,-1,-1,-1],"loss_changes":[1.82611E1,2.1118822E0,4.5242834E0,0E0,1.4507446E0,0E0,1.5214806E0,0E0,6.8493843E-1,0E0,0E0,1.2599945E-2,0E0,0E0,0E0],"parents":[2147483647,0,0,1,1,2,2,4,4,6,6,8,8,11,11],"right_children":[2,-1,-1,-1,-1,-1,-1,-1,-1,-1,-1,-1,-1,-1,-1],"split_conditions":[-5E-1,-3.5555116E-3,2.2319155E-3,-0E0,-4.0317173E-3,-0E0,3.4276189E-3,-0E0,-4.345776E-3,-0E0,4.060309E-3,-4.5700907E-3,-0E0,-0E0,-4.735739E-3],"split_indices":[32,25,18,2147483647,2147483647,2147483647,2147483647,2147483647,2147483647,2147483647,2147483647,2147483647,2147483647,2147483647,2147483647],"split_type":[0,0,0,0,0,0,0,0,0,0,0,0,0,0,0],"sum_hessian":[1.769274E2,8.223841E1,9.4688995E1,7.7264805E0,7.451193E1,2.3090076E1,7.1598915E1,4.1570864E0,7.035485E1,1.3345136E1,5.825378E1,6.620009E1,4.1547613E0,4.643963E0,6.155612E1],"tree_param":{"num_deleted":"12","num_feature":"38","num_nodes":"15","size_leaf_vector":"0"}},{"base_weights":[-0E0,1.8449762E-1,-3.7579757E-1,-0E0,2.8558448E-1,-4.1657293E-1,-0E0,-0E0,3.3750692E-1,-0E0,-4.677203E-1,-0E0,4.0042847E-1,-4.8625958E-1,-0E0],"categories":[],"categories_nodes":[],"categories_segments":[],"categories_sizes":[],"default_left":[1,1,1,1,1,1,1,1,1,1,1,1,1,1,1],"id":78,"left_children":[1,-1,-1,-1,-1,-1,-1,-1,-1,-1,-1,-1,-1,-1,-1],"loss_changes":[1.5037953E1,3.515816E0,1.7608824E0,0E0,1.2516127E0,1.7694235E0,0E0,0E0,1.2817698E0,0E0,9.0771675E-2,0E0,0E0,0E0,0E0],"parents":[2147483647,0,0,1,1,2,2,4,4,5,5,8,8,10,10],"right_children":[2,-1,-1,-1,-1,-1,-1,-1,-1,-1,-1,-1,-1,-1,-1],"split_conditions":[7.5E0,1.6984548E-3,-3.4595306E-3,-0E0,2.6290438E-3,-3.834902E-3,-0E0,-0E0,3.1070332E-3,-0E0,-4.305756E-3,-0E0,3.6862788E-3,-4.4764257E-3,-0E0],"split_indices":[27,33,30,2147483647,2147483647,2147483647,2147483647,2147483647,2147483647,2147483647,2147483647,2147483647,2147483647,2147483647,2147483647],"split_type":[0,0,0,0,0,0,0,0,0,0,0,0,0,0,0],"sum_hessian":[1.8306203E2,1.04263245E2,7.8798775E1,1.883876E1,8.5424484E1,7.389179E1,4.906982E0,1.3858608E1,7.156588E1,7.614278E0,6.627751E1,1.3325943E1,5.8239937E1,6.155001E1,4.7275014E0],"tree_param":{"num_deleted":"12","num_feature":"38","num_nodes":"15","size_leaf_vector":"0"}},{"base_weights":[-0E0,-3.070314E-1,1.8806861E-1,-4.089083E-1,-0E0,-0E0,3.2194704E-1,-4.423682E-1,-0E0,-0E0,3.6557528E-1,-4.741747E-1,-0E0,4.0993664E-1,-0E0,4.3879986E-1,-0E0],"categories":[],"categories_nodes":[],"categories_segments":[],"categories_sizes":[],"default_left":[1,1,1,1,1,0,1,1,1,1,1,1,1,1,1,1,1],"id":79,"left_children":[1,-1,5,-1,-1,-1,-1,-1,-1,-1,-1,-1,-1,-1,-1,-1,-1],"loss_changes":[1.1377619E1,4.663015E0,5.034213E0,1.3180542E0,0E0,0E0,1.878417E0,1.049263E0,0E0,0E0,1.6080456E0,0E0,0E0,9.04809E-1,0E0,0E0,0E0],"parents":[2147483647,0,0,1,1,2,2,3,3,6,6,7,7,10,10,13,13],"right_children":[2,-1,6,-1,-1,-1,-1,-1,-1,-1,-1,-1,-1,-1,-1,-1,-1],"split_conditions":[-5E-1,-2.8264807E-3,-1.0149287E-1,-3.7643427E-3,-0E0,-0E0,2.9637916E-3,-4.072369E-3,-0E0,-0E0,3.365426E-3,-4.3651746E-3,-0E0,3.7738094E-3,-0E0,4.0395195E-3,-0E0],"split_indices":[32,37,1,2147483647,2147483647,0,37,2147483647,2147483647,2147483647,2147483647,2147483647,2147483647,2147483647,2147483647,2147483647,2147483647],"split_type":[0,0,0,0,0,0,0,0,0,0,0,0,0,0,0,0,0],"sum_hessian":[1.7887749E2,8.1224594E1,9.765289E1,7.278348E1,8.441114E0,1.7115633E1,8.053726E1,6.862541E1,4.158071E0,4.4823923E0,7.605487E1,6.412762E1,4.4977946E0,6.963266E1,6.422212E0,6.521079E1,4.421863E0],"tree_param":{"num_deleted":"12","num_feature":"38","num_nodes":"17","size_leaf_vector":"0"}},{"base_weights":[-0E0,2.8589898E-1,-3.0521876E-1,-0E0,3.2431406E-1,-4.1182506E-1,-0E0,-0E0,3.566939E-1,-0E0,4.0363678E-1,4.790804E-1,-0E0,-0E0,5.066606E-1,5.335886E-1,-0E0],"categories":[],"categories_nodes":[],"categories_segments":[],"categories_sizes":[],"default_left":[1,1,1,1,1,1,1,1,1,1,1,1,1,1,1,1,1],"id":80,"left_children":[1,-1,-1,-1,-1,-1,-1,-1,-1,-1,-1,-1,-1,-1,-1,-1,-1],"loss_changes":[1.5924858E1,1.8084269E0,3.9890976E0,0E0,1.5149193E0,0E0,0E0,0E0,1.1530533E0,0E0,2.5906944E0,7.1934795E-1,0E0,0E0,5.4652214E-1,0E0,0E0],"parents":[2147483647,0,0,1,1,2,2,4,4,8,8,10,10,11,11,14,14],"right_children":[2,-1,-1,-1,-1,-1,-1,-1,-1,-1,-1,-1,-1,-1,-1,-1,-1],"split_conditions":[4.5E0,2.631939E-3,-2.8097937E-3,-0E0,2.985582E-3,-3.791194E-3,-0E0,-0E0,3.2836655E-3,-0E0,3.715814E-3,4.410336E-3,-0E0,-0E0,4.6642344E-3,4.912129E-3,-0E0],"split_indices":[27,21,32,2147483647,2147483647,2147483647,2147483647,2147483647,2147483647,2147483647,2147483647,2147483647,2147483647,2147483647,2147483647,2147483647,2147483647],"split_type":[0,0,0,0,0,0,0,0,0,0,0,0,0,0,0,0,0],"sum_hessian":[1.7900941E2,9.7306755E1,8.170266E1,4.95165E0,9.23551E1,6.747117E1,1.423149E1,4.456234E0,8.789887E1,1.2629837E1,7.5269035E1,6.411998E1,1.1149053E1,4.2064505E0,5.991353E1,5.5736023E1,4.177508E0],"tree_param":{"num_deleted":"14","num_feature":"38","num_nodes":"17","size_leaf_vector":"0"}},{"base_weights":[-0E0,4.2799896E-1,-2.2902527E-1,-0E0,4.6905643E-1,-3.4862724E-1,-0E0,-4.0367052E-1,-0E0,-4.1810352E-1,-0E0,-4.3578616E-1,-0E0,-0E0,-4.5080134E-1],"categories":[],"categories_nodes":[],"categories_segments":[],"categories_sizes":[],"default_left":[1,1,1,1,1,1,0,1,1,1,1,1,1,1,1],"id":81,"left_children":[1,-1,5,-1,-1,-1,-1,-1,-1,-1,-1,-1,-1,-1,-1],"loss_changes":[1.7429766E1,7.629242E-1,6.4624763E0,0E0,0E0,3.1023645E0,0E0,4.7169113E-1,0E0,6.232643E-1,0E0,2.8426552E-1,0E0,0E0,0E0],"parents":[2147483647,0,0,1,1,2,2,5,5,7,7,9,9,11,11],"right_children":[2,-1,6,-1,-1,-1,-1,-1,-1,-1,-1,-1,-1,-1,-1],"split_conditions":[-1.65E1,3.940088E-3,5E-1,-0E0,4.3180566E-3,-3.209405E-3,-0E0,-3.7161245E-3,-0E0,-3.8489923E-3,-0E0,-4.011776E-3,-0E0,-0E0,-4.150003E-3],"split_indices":[25,18,33,2147483647,2147483647,30,0,2147483647,2147483647,2147483647,2147483647,2147483647,2147483647,2147483647,2147483647],"split_type":[0,0,0,0,0,0,0,0,0,0,0,0,0,0,0],"sum_hessian":[1.8481712E2,5.5463486E1,1.2935364E2,6.1615543E0,4.9301933E1,1.07825775E2,2.1527855E1,9.894088E1,8.884896E0,9.478656E1,4.154318E0,9.036872E1,4.417838E0,4.655697E0,8.571303E1],"tree_param":{"num_deleted":"10","num_feature":"38","num_nodes":"15","size_leaf_vector":"0"}},{"base_weights":[-0E0,3.8730383E-1,-1.5760167E-1,-0E0,4.3313524E-1,-2.692671E-1,-0E0,-3.121582E-1,-0E0,-3.4543002E-1,-0E0,-0E0,-3.6054942E-1,-3.734062E-1,-0E0],"categories":[],"categories_nodes":[],"categories_segments":[],"categories_sizes":[],"default_left":[1,1,1,1,1,1,1,1,1,1,1,1,1,1,1],"id":82,"left_children":[1,-1,-1,-1,-1,-1,-1,-1,-1,-1,-1,-1,-1,-1,-1],"loss_changes":[1.1661133E1,1.0948801E0,4.6097603E0,0E0,0E0,1.7072315E0,0E0,1.5859156E0,0E0,4.2202377E-1,0E0,0E0,2.587347E-1,0E0,0E0],"parents":[2147483647,0,0,1,1,2,2,5,5,7,7,9,9,12,12],"right_children":[2,-1,-1,-1,-1,-1,-1,-1,-1,-1,-1,-1,-1,-1,-1],"split_conditions":[-1.65E1,3.5654556E-3,-1.450855E-3,-0E0,3.987372E-3,-2.478829E-3,-0E0,-2.873677E-3,-0E0,-3.179972E-3,-0E0,-0E0,